
//<![CDATA[

// 75.01 Solution

lanesSide = 2;
patchesAhead = 15;
patchesBehind = 7;
trainIterations = 50000;
otherAgents = 10; 

var num_inputs = (lanesSide * 2 + 1) * (patchesAhead + patchesBehind);
var num_actions = 5;
var temporal_window = 0;
var network_size = num_inputs * temporal_window + num_actions * temporal_window + num_inputs;

var layer_defs = [];
layer_defs.push({
    type: 'input',
    out_sx: 1,
    out_sy: 1,
    out_depth: network_size
});
layer_defs.push({
    type: 'fc',
    num_neurons: 384,
    activation: 'tanh'
});
layer_defs.push({
    type: 'regression',
    num_neurons: num_actions
});

var tdtrainer_options = {
    learning_rate: 0.001,
    momentum: 0.0,
    batch_size: 32,
    l2_decay: 0.001
};

var opt = {};
opt.temporal_window = temporal_window;
opt.experience_size = 10000;
opt.start_learn_threshold = 500;
opt.gamma = 0.9;
opt.learning_steps_total = trainIterations;
opt.learning_steps_burnin = 1000;
opt.epsilon_min = 0.001;
opt.epsilon_test_time = 0.0;
opt.layer_defs = layer_defs;
opt.tdtrainer_options = tdtrainer_options;

brain = new deepqlearn.Brain(num_inputs, num_actions, opt);

learn = function (state, lastReward) {
    brain.backward(lastReward);
    var action = brain.forward(state);
    draw_net();
    draw_stats();
    return action;
}

if (brain) {
brain.value_net.fromJSON({"layers":[{"out_depth":110,"out_sx":1,"out_sy":1,"layer_type":"input"},{"out_depth":384,"out_sx":1,"out_sy":1,"layer_type":"fc","num_inputs":110,"l1_decay_mul":0,"l2_decay_mul":1,"filters":[{"sx":1,"sy":1,"depth":110,"w":{"0":0.014552030341143657,"1":0.08566352383619993,"2":-0.05501689564629253,"3":0.0870102678613386,"4":-0.12061597242030118,"5":0.18132008966481897,"6":0.08402235133103696,"7":0.09001832190327061,"8":-0.04931503135695422,"9":0.10921253923595171,"10":0.11413027482570541,"11":-0.14980109765434732,"12":0.11015145961237195,"13":0.019398363846607782,"14":-0.041843539041929015,"15":0.03727747782913906,"16":0.05213852049146678,"17":-0.11541429592005031,"18":-0.05331616994384875,"19":-0.11507505600282499,"20":0.03247177636220733,"21":0.020843050304679797,"22":0.18374442025351026,"23":-0.0010206295303103006,"24":-0.01643049943418052,"25":0.09271609203264153,"26":-0.07372318514301958,"27":0.0348344091696367,"28":0.07022165607631367,"29":-0.02110204327862342,"30":-0.038223854841073,"31":-0.017192050696829556,"32":0.0167322468391221,"33":0.13130963120660555,"34":0.02064869508151446,"35":0.1168711605460328,"36":-0.04788270932791815,"37":-0.07661973368201419,"38":0.23081423401846055,"39":-0.11943197355188315,"40":0.0979750316015648,"41":-0.04251549562105924,"42":0.08265357382864034,"43":-0.01321836693557479,"44":0.16087555198548717,"45":-0.04944823720865583,"46":-0.036456515727044315,"47":-0.13663701540602183,"48":0.10058841052473705,"49":-0.05422582782484882,"50":0.03253636792050943,"51":0.053772582638508634,"52":0.004917937584474876,"53":0.0036373889837134988,"54":0.08300931160257448,"55":-0.008302244514694138,"56":-0.016457445702086616,"57":0.08405143933096505,"58":-0.07252533724979808,"59":-0.09276620419923934,"60":0.20181994094921724,"61":-0.04145876908757117,"62":-0.01969873970841638,"63":0.07233595773932176,"64":0.0221690431168053,"65":-0.05882904117444207,"66":0.013800016812899064,"67":0.004173306725958646,"68":-0.037793055941111146,"69":-0.12211129374845399,"70":0.043157734651802476,"71":0.13684710080024237,"72":-0.06086612797273979,"73":0.026089441263037246,"74":0.019863659847674436,"75":0.03198753108590727,"76":0.040420722734772915,"77":-0.02098433547280059,"78":0.01791615214589649,"79":0.09340895558239251,"80":0.029707171946637426,"81":0.026533220109938475,"82":-0.029330422199554514,"83":0.04259184152399731,"84":0.0006962313080238274,"85":0.00593826037756412,"86":0.00792427131710049,"87":0.0018310011997687064,"88":0.1095797970422879,"89":0.21418158716891356,"90":0.17642976246794467,"91":-0.25121892676872853,"92":0.06914897122431235,"93":-0.032600693321690306,"94":-0.03856217750075474,"95":0.05311840829547522,"96":-0.0328265171664285,"97":0.15100555393829346,"98":0.15128143400259905,"99":0.019773551240769377,"100":0.06740318113109944,"101":-0.07376022574909863,"102":0.0996269487229314,"103":0.012364051151184661,"104":0.07554330304190066,"105":0.03233882647387544,"106":0.058531565807769276,"107":-0.06169906106152822,"108":-0.04436835623462324,"109":-0.056206498576176746}},{"sx":1,"sy":1,"depth":110,"w":{"0":-0.005743200381884654,"1":0.08257963825484582,"2":-0.05751902123040912,"3":-0.037442904059722115,"4":0.1360002515650828,"5":0.1361077420695384,"6":0.09778685879372682,"7":0.06988851380246335,"8":-0.011832485463987952,"9":0.11869707336756653,"10":0.05661527655300102,"11":-0.0022025635402072876,"12":0.0034321931460698503,"13":0.03116043872594105,"14":0.01171147808339532,"15":-0.09583832126538509,"16":-0.2605378452644942,"17":0.07959650308090253,"18":-0.09841014821896549,"19":-0.20609546898544698,"20":0.024205341792935008,"21":-0.10381108917673143,"22":-0.002420784476677042,"23":0.037239802328065806,"24":-0.16377578954675592,"25":0.13939623728248743,"26":0.07144633679639609,"27":-0.12354597016982335,"28":0.07196562909034256,"29":0.02928739256842129,"30":0.00713827078100908,"31":-0.11087769110707833,"32":0.15591406581630382,"33":0.005846792046503228,"34":-0.14851352380221877,"35":-0.1426782761282282,"36":-0.20582314470781646,"37":0.18295643929698854,"38":0.1655986633372076,"39":0.1306571606800199,"40":0.14558182395444053,"41":0.028177319571001797,"42":-0.010740337453329482,"43":0.007573711789421637,"44":0.03467717792866934,"45":0.12970692364634714,"46":-0.015577972326286311,"47":0.07498055170032171,"48":-0.05361309312856986,"49":-0.09837672873464712,"50":-0.0092425183778409,"51":-0.08058604438640622,"52":-0.011663641132519841,"53":-0.0548640046645478,"54":-0.06725873318159249,"55":-0.052206771880400855,"56":0.14642938906077527,"57":-0.06573989421047546,"58":0.00046398480433871707,"59":-0.054737421042290735,"60":-0.07462839278577352,"61":-0.24722390749693973,"62":-0.030697553283974496,"63":-0.11721337087662172,"64":-0.10814586750936583,"65":-0.15522966468070123,"66":0.04852226656370948,"67":-0.016620301349370915,"68":-0.12440699276874351,"69":-0.06868326418437572,"70":-0.05490653973555201,"71":-0.13182749821248416,"72":0.056968395872066244,"73":-0.044284148290109335,"74":0.12406280920750702,"75":-0.11552694081383169,"76":-0.024144161618343398,"77":-0.18678267212604185,"78":0.0498168536216158,"79":-0.08877224110072748,"80":0.06675103460417427,"81":-0.009502367577423601,"82":-0.11841816158411642,"83":-0.026259524199708287,"84":-0.12007243837162382,"85":0.1024343449772336,"86":-0.013935134479964926,"87":0.09949630056783414,"88":0.14567810792259958,"89":-0.008677224710646672,"90":0.11409356099184724,"91":0.050575193633966044,"92":0.11905083301784875,"93":-0.04065524426470936,"94":0.04289166768933855,"95":0.04728425648848834,"96":0.058485356207335984,"97":-0.02008488502860467,"98":0.06260119280513901,"99":-0.23262542468702516,"100":-0.03726374621031164,"101":0.055253489587706046,"102":-0.025599448621290356,"103":-0.0667245066991193,"104":0.13467154298335096,"105":0.10764345994927181,"106":-0.024274326232678913,"107":-0.11761445227302672,"108":-0.039737514396828266,"109":-0.08504170339451701}},{"sx":1,"sy":1,"depth":110,"w":{"0":0.028685690116477876,"1":-0.10748420001458854,"2":-0.10272119438912374,"3":-0.06454336322151329,"4":0.089779117770239,"5":-0.08565151536702742,"6":0.00793058827314044,"7":-0.03777769942182664,"8":0.04038617319753211,"9":-0.0987427979120153,"10":0.020219820732224482,"11":0.002437059547968387,"12":0.10013674445004284,"13":0.02311671634416707,"14":-0.07410684688851267,"15":0.04301762798875601,"16":-0.008441438273166669,"17":0.008897943994832933,"18":-0.1992531489230611,"19":-0.08295870559337867,"20":-0.04019051994993583,"21":-0.1477236613720098,"22":-0.06030096413492383,"23":0.053601325858047034,"24":-0.021138600725647935,"25":0.04168002866488907,"26":-0.0981464974067795,"27":-0.1422694137745999,"28":-0.16833932397000118,"29":-0.08824454027508141,"30":-0.03717853264217723,"31":0.07100700842757396,"32":-0.07083616636062472,"33":-0.03974998505783619,"34":-0.03090605496320298,"35":-0.055829627101830426,"36":0.12945977656398505,"37":-0.10059314059063672,"38":0.0007647316256994344,"39":0.011370830635485251,"40":0.10842963479872392,"41":-0.12991545628993958,"42":-0.02020759566664664,"43":0.039439909322261456,"44":-0.022898040796798903,"45":0.05906097176359895,"46":0.006104526712092977,"47":-0.21504658416882394,"48":0.004446915370514928,"49":0.24995580480001692,"50":-0.013134243359954875,"51":-0.0031156468191588117,"52":0.08018110825842424,"53":0.03129436627975398,"54":-0.05619186939397572,"55":-0.17222346663589802,"56":-0.12527654556435605,"57":-0.09306293150231122,"58":0.056993844657773886,"59":0.04297354271129682,"60":0.1531954382553773,"61":0.18953941726729862,"62":0.03759951437713976,"63":0.24849317646923424,"64":0.16630911827798223,"65":-0.09488950494968443,"66":0.1010787190132351,"67":0.1325965806576868,"68":0.1529364259763959,"69":-0.018668230976925028,"70":-0.1746174797384626,"71":0.029590581270587342,"72":0.05699128339852986,"73":-0.019117753898334023,"74":0.22573732932650997,"75":0.03618702452742258,"76":-0.015099381068107313,"77":0.12070757377421486,"78":0.24461612248316056,"79":0.03487229789086999,"80":0.11972921196771706,"81":0.10888266576530078,"82":0.06385052821208843,"83":0.040556283689133436,"84":-0.07576621386856662,"85":-0.03937552254031146,"86":-0.046486838074771865,"87":-0.12450144658740282,"88":-0.0678583982680632,"89":-0.0750418073215042,"90":0.06350694339722275,"91":0.0989438604447503,"92":0.22614566202583972,"93":-0.1766610647696128,"94":0.057688698553347025,"95":0.04116313146695941,"96":-0.3273774658396465,"97":0.08635947423759163,"98":-0.02126001443154175,"99":-0.023367841840608916,"100":0.21398288795547174,"101":-0.004410743349291465,"102":0.09911445396961663,"103":0.09330091925306971,"104":0.095988530066824,"105":-0.042998848463348796,"106":0.08042929399980311,"107":0.0676342936010837,"108":0.08367094096904522,"109":0.03220990192494917}},{"sx":1,"sy":1,"depth":110,"w":{"0":0.07188311048639341,"1":0.0973290799369763,"2":-0.0022781328810874803,"3":-0.016186878995041815,"4":-0.21911475378402218,"5":0.01445162074885877,"6":-0.17994130323063268,"7":0.18801695857375622,"8":0.13870632617844428,"9":-0.02019607838869537,"10":0.15205397866640583,"11":-0.05832003002296335,"12":0.043024846248268925,"13":-0.05405390175344228,"14":-0.02408361777274929,"15":0.1392658143440237,"16":0.043130899878099864,"17":0.14106995127696048,"18":-0.08248996978878838,"19":0.003590008686992651,"20":0.040772206885722646,"21":0.04864216233498643,"22":-0.03456280778177356,"23":0.1250300459156845,"24":-0.05762565650121854,"25":0.09585070926561982,"26":-0.06961413523261387,"27":-0.05201430824624887,"28":0.1644672224485507,"29":-0.06661241648205876,"30":-0.11894275167232705,"31":-0.11124720976702425,"32":0.03606353795095055,"33":0.1591749252814632,"34":0.1111092132613697,"35":-0.07408163160820735,"36":0.06906635442754465,"37":0.02830435690372265,"38":-0.027536880690688274,"39":0.001003348112233567,"40":0.09476136818301531,"41":0.06930143684553627,"42":0.10888954912267777,"43":0.07214136748650647,"44":0.031035063727083395,"45":0.25548440205914386,"46":-0.1314112060662743,"47":0.08675519396854496,"48":0.08465019332073292,"49":0.15796107090488046,"50":0.19265582111531954,"51":-0.063333918438125,"52":0.08587894489926334,"53":0.013507609287318367,"54":-0.14587272131075393,"55":-0.1262390501061004,"56":0.03772031009083535,"57":-0.033798872005968476,"58":-0.12627300831476593,"59":0.14668674660193093,"60":-0.097892121673481,"61":0.07304372009786653,"62":0.01409809251360145,"63":0.20804534743789124,"64":0.11198347700568721,"65":-0.11965534015534256,"66":0.06971850316562593,"67":0.10531227069538542,"68":-0.09320073184709442,"69":-0.04055637924736835,"70":0.07114674715102338,"71":0.006414059382969086,"72":0.012310008901090462,"73":-0.07213271036748092,"74":0.06029147827704939,"75":0.09267700180459362,"76":-0.15791572808194196,"77":-0.08736158560271856,"78":0.0650403486807037,"79":-0.18801985774708282,"80":-0.14858376963897074,"81":0.0754669191486747,"82":-0.1077414169954108,"83":-0.0401087926990147,"84":-0.02493457056774675,"85":-0.0886866032188368,"86":-0.04311545880295172,"87":-0.05670563559835033,"88":-0.025176053979787283,"89":-0.018852452711818454,"90":-0.07437694084843618,"91":0.049503603201113376,"92":-0.02960807166127069,"93":0.04373391775303531,"94":0.13911909954951143,"95":-0.18225023489330816,"96":-0.07688699579161105,"97":0.03390482786832991,"98":-0.11402736030995157,"99":-0.08363303120937832,"100":0.015419250409557028,"101":0.0782233853592788,"102":0.07158484418870618,"103":-0.027195146833772128,"104":-0.23009224315713658,"105":-0.06206344678866935,"106":0.06141079007914917,"107":0.05116070395261756,"108":-0.027547414110759037,"109":0.030526893080644577}},{"sx":1,"sy":1,"depth":110,"w":{"0":-0.024505805441729492,"1":0.09035511072228834,"2":0.07839134764530449,"3":0.10552160952778428,"4":0.01840459320221642,"5":0.09343042844264618,"6":-0.04635610005682851,"7":-0.129335735855947,"8":-0.007722508047411172,"9":-0.12065771190830725,"10":-0.03257888411832587,"11":-0.13394498456438483,"12":0.015037863389379546,"13":0.07396729629881404,"14":0.017119822078186683,"15":-0.0476684855964561,"16":0.12958478969209974,"17":-0.14741134377685083,"18":-0.027507229455380512,"19":-0.0577423865102743,"20":-0.051984763015650914,"21":0.06087164877059065,"22":0.00014758285903082737,"23":-0.03678705660597134,"24":0.01909679821395714,"25":-0.008037097238292686,"26":0.042287131318371446,"27":0.05959440530730866,"28":0.006774505120795666,"29":-0.12302904401483912,"30":0.10873358937565702,"31":0.019436525045451146,"32":0.03298328079010983,"33":-0.12423228952891446,"34":-0.13172240457959855,"35":0.19318745839359916,"36":0.0969364135851532,"37":0.03507563818558343,"38":0.14166137886599814,"39":-0.0614263904224882,"40":-0.023825007605624518,"41":-0.0813735139896773,"42":-0.013006175531651688,"43":-0.07839512117401432,"44":-0.053125344321243,"45":0.044666880895698764,"46":0.08817689437069666,"47":-0.012984721526861033,"48":-0.0432520446976884,"49":-0.03732188131194527,"50":0.0013891517403813655,"51":0.019645086315578205,"52":0.06127640141495459,"53":-0.13603400866852383,"54":0.015832258415349763,"55":0.07666428393251784,"56":0.1588889020752961,"57":0.03380437498082394,"58":-0.05821808377336415,"59":-0.052933968052321465,"60":-0.051381315976051126,"61":-0.04491571186245947,"62":-0.13991258184993224,"63":-0.11837356492358375,"64":0.010791275773910036,"65":-0.02236393840834586,"66":-0.07076628827041384,"67":-0.00480855268878795,"68":0.13493070394462123,"69":-0.05098628226874539,"70":-0.020824504132649368,"71":0.0701219568831997,"72":0.09392228626339025,"73":-0.0230974084809269,"74":-0.2462796753668578,"75":0.06198749710068649,"76":0.033346705386130035,"77":-0.10916477726263692,"78":0.04789967007148365,"79":0.13941201217511048,"80":0.15339210387387578,"81":-0.16928644178432986,"82":0.02892766201613042,"83":0.014117461169391637,"84":0.025316912401386893,"85":-0.12039547721046996,"86":0.0002389036403138601,"87":-0.1298343264798246,"88":-0.050998650206239046,"89":0.06551013971336314,"90":0.11899744690295225,"91":-0.06430689101443615,"92":0.14975451816057322,"93":-0.05685181438624964,"94":-0.004753847500694135,"95":-0.10710077196762056,"96":0.047538398031970366,"97":-0.08927392136253484,"98":0.0683431830700758,"99":0.10190092140269363,"100":-0.04785893451905793,"101":0.17926416762573782,"102":-0.11398899735361767,"103":-0.016956805880276586,"104":0.016699736812806017,"105":0.07182480461382797,"106":0.1310589555895738,"107":-0.008305575642825648,"108":-0.14113053806889175,"109":-0.012006159999573334}},{"sx":1,"sy":1,"depth":110,"w":{"0":0.059491567829622005,"1":-0.006774460137796207,"2":0.00020097339691426514,"3":0.003199215534683548,"4":-0.2342224153836414,"5":-0.06843865959247317,"6":-0.2092786946294932,"7":-0.08245110373367279,"8":-0.1531628969136086,"9":0.11554587657736258,"10":-0.01592363158037599,"11":0.018793962666166557,"12":0.05172574222584282,"13":0.022080459072641022,"14":0.07423170263345392,"15":0.026623889378209524,"16":-0.3502294891520159,"17":-0.010175603386003464,"18":-0.023495235785895685,"19":0.10962132073154048,"20":0.06538090745632939,"21":-0.04455044012013637,"22":-0.09374898967729947,"23":-0.10316474281791548,"24":-0.01656190055490001,"25":0.1313780213089652,"26":0.002036668988572952,"27":0.13706649230325418,"28":0.23975783745733678,"29":0.18806385627272085,"30":0.02872989998336323,"31":0.07909059274453971,"32":-0.094796692681157,"33":0.05081680138757341,"34":-0.12815516707373215,"35":0.07277235729215498,"36":0.16048921759554827,"37":-0.01626384375903531,"38":-0.02291098130907545,"39":-0.05315011133390608,"40":-0.09160236748093871,"41":-0.1362246294132562,"42":-0.016932623163826585,"43":0.07665424240966531,"44":-0.21082849768452938,"45":0.19586742456196357,"46":0.003335765141255701,"47":0.019661171479896534,"48":0.0811156712855844,"49":-0.09429943825631726,"50":0.08343824996896829,"51":-0.14554959258183414,"52":-0.14033680459627876,"53":0.033531136954199826,"54":0.08899005375301762,"55":0.16266234979026087,"56":-0.036746059498416056,"57":-0.15859621657478815,"58":-0.09259869268631683,"59":0.09064190570075294,"60":0.005235174274400699,"61":0.069349680019644,"62":-0.376629954257551,"63":0.15277186082750144,"64":-0.010517909734999852,"65":0.25390363125603904,"66":-0.13540030408850867,"67":-0.04627049145765282,"68":0.039881291543929956,"69":0.07961874779669166,"70":0.02099662386989407,"71":0.16068896721812986,"72":-0.1433408049181792,"73":-0.021827855676033306,"74":0.12569915898668219,"75":-0.07185655011599203,"76":0.02933844998961205,"77":0.004626572235420512,"78":0.009741867863103142,"79":-0.05031246005748985,"80":0.04871662369546295,"81":-0.10992272294718194,"82":0.07731833252516417,"83":0.12965846818837556,"84":0.007158304956264655,"85":-0.037221615168792965,"86":0.06579720430414206,"87":0.14613984360051638,"88":-0.07942668837345894,"89":-0.04394501945596254,"90":-0.034504558809406456,"91":0.06327262009658284,"92":0.05850233991276018,"93":0.06699801960445696,"94":0.04915217127484202,"95":0.1435836640848323,"96":0.06404551198466442,"97":-0.03503863017288345,"98":-0.000625043523552956,"99":-0.00822566246427579,"100":0.025295210404030398,"101":0.11657346128062665,"102":0.10115262481112608,"103":0.0786907047143044,"104":0.017986153669077368,"105":-0.08742619291112726,"106":-0.024136202754191004,"107":-0.02676318386717667,"108":-0.20938010760384645,"109":0.09257745317192834}},{"sx":1,"sy":1,"depth":110,"w":{"0":0.05306435442829204,"1":0.006243987671837201,"2":0.009202219942723477,"3":-0.2229381064802889,"4":0.05753365158642173,"5":-0.0869768656607167,"6":-0.022840595717582228,"7":0.09187277016629795,"8":0.09796970744162842,"9":-0.004461568635956393,"10":-0.11533433272810018,"11":0.07315310427102108,"12":0.03423307708022262,"13":-0.07428310044587022,"14":0.09793473560849934,"15":0.02272510419594617,"16":-0.0509439652901169,"17":-0.004439528418864584,"18":0.026590876996502564,"19":-0.0012706092666942242,"20":0.08982410773801812,"21":0.17088694233079518,"22":0.09270478790762754,"23":0.07535736797741394,"24":-0.017830620327820408,"25":0.04955107817561552,"26":0.08225857150665486,"27":0.036196246544113735,"28":0.07164564671095427,"29":-0.009990261278558737,"30":-0.0417833680601516,"31":-0.015878357420024504,"32":0.12099418427939233,"33":0.12592698429735796,"34":0.055862891756865624,"35":-0.08684118052130517,"36":-0.03995103585461764,"37":-0.07796590013247688,"38":0.11289747848139035,"39":0.1282295545144497,"40":0.03260833072070561,"41":0.23659776605214647,"42":0.22250997774025114,"43":0.016430829486954075,"44":-0.021594390882518195,"45":0.07764731383504782,"46":0.09485180975411599,"47":0.09111585926420356,"48":-0.11566230570112987,"49":0.006149707872059414,"50":0.01573123786719013,"51":0.019358109855767736,"52":-0.19558917781686874,"53":-0.03661451673332558,"54":-0.14751584281552238,"55":0.046242472919389835,"56":0.18299166361357402,"57":0.05091834929884281,"58":-0.025479082354305342,"59":0.004475286327274765,"60":-0.0034058375471362587,"61":0.05654017721709478,"62":0.13246142517673418,"63":-0.02484637784282433,"64":-0.23464061611432074,"65":0.026233302197149883,"66":-0.06785687885998423,"67":0.23109829052455713,"68":0.1485638454367505,"69":0.014382294730207823,"70":-0.13459402945764054,"71":-0.2698336965962599,"72":0.15199864205940808,"73":0.011600291764414985,"74":-0.2079268293703795,"75":-0.0495643237694856,"76":-0.007606056249803898,"77":-0.10845709223340581,"78":-0.12722075832156804,"79":-0.0704185742982814,"80":0.05827636459932355,"81":-0.1609166050972039,"82":-0.026277762521954313,"83":-0.07802693366209056,"84":-0.16043936211321244,"85":-0.06422384980476382,"86":-0.11003787053721623,"87":-0.12178417685158664,"88":0.014125509869278751,"89":-0.07615689410411808,"90":0.04021492296240722,"91":-0.09336429454805133,"92":-0.09548466709517305,"93":-0.12447004241732254,"94":-0.007788205835528434,"95":0.027092095423793792,"96":-0.0593187321057025,"97":0.10399197398823272,"98":0.022789534915055764,"99":0.03740735655678291,"100":-0.07417295247107283,"101":-0.09101333719454936,"102":-0.004528565967177137,"103":0.09119108482032504,"104":0.08094634219057907,"105":-0.04418209550423135,"106":-0.07341656877487736,"107":0.063482578878715,"108":-0.09790234252759115,"109":-0.04812070392186935}},{"sx":1,"sy":1,"depth":110,"w":{"0":0.04437643856687089,"1":0.10310952184136155,"2":0.0664135505162617,"3":0.014785327692253982,"4":-0.011852274975366013,"5":0.026339831593392732,"6":0.04340070958144275,"7":-0.08699537611463777,"8":-0.041855981880587645,"9":-0.15841330977502022,"10":0.12638914375832944,"11":-0.08772275965612185,"12":-0.005149617861713995,"13":-0.06518340880927502,"14":0.03096237852346995,"15":-0.025172641108206776,"16":-0.3072313621621249,"17":0.0323527678052503,"18":-0.06229329949979642,"19":0.07256590816853362,"20":0.005936062937638987,"21":0.06563280669449324,"22":0.10945670118046891,"23":-0.039366631862945575,"24":0.15464910275699748,"25":0.1033668152855197,"26":-0.1789028434208253,"27":0.07602014648533348,"28":-0.20432838394441788,"29":-0.026175297105202774,"30":-0.013996945486321086,"31":0.023415920891891828,"32":0.07859998572219755,"33":0.05026705564172391,"34":-0.04955539972378392,"35":-0.06512926341371852,"36":-0.0020757178127279816,"37":-0.05058229787654033,"38":0.05257074213708964,"39":0.15146381266195422,"40":-0.17849051264310067,"41":0.14263382953347975,"42":-0.24045635447195624,"43":0.09509610011067417,"44":-0.17330409107642913,"45":0.02988094231205112,"46":0.08594144635084743,"47":0.05350116041966876,"48":-0.1778114773085798,"49":-0.0005983434632846868,"50":0.1436037945903568,"51":-0.048632846064332345,"52":0.043467778015434326,"53":0.01036757093589736,"54":-0.297343327480196,"55":0.05100210981805259,"56":-0.035535112305660796,"57":0.08474647030966131,"58":-0.007163271622608597,"59":-0.11859931788269298,"60":-0.005357043861238493,"61":0.06013603547750353,"62":-0.09809195906193306,"63":0.1732404396669231,"64":0.006184638244301269,"65":0.0933748809305186,"66":0.05797044674942306,"67":-0.16918788431579765,"68":0.06585649478414297,"69":0.024640540565009295,"70":0.05406135293962886,"71":0.056009585624589915,"72":-0.025284031037164666,"73":0.05934237982126518,"74":0.10675803726861399,"75":0.06847269955675159,"76":-0.01761243744099405,"77":-0.187195731138286,"78":0.06373941788365631,"79":-0.08473856172850312,"80":0.040901651142932594,"81":0.12562808464179923,"82":0.015850534724962687,"83":0.060357961118347125,"84":0.21025068648769807,"85":-0.13621531568260772,"86":-0.08007696753171366,"87":0.04520882204723285,"88":-0.03491419701783558,"89":-0.21424888610497997,"90":0.09855501838324104,"91":-0.007790611357287396,"92":-0.015056511337853986,"93":-0.15236739686723902,"94":0.08734126192775868,"95":-0.0827815306782373,"96":0.027281766803804366,"97":0.00796073955597393,"98":-0.039402302930491864,"99":-0.02410902898440661,"100":-0.026517507303114238,"101":-0.09245027489941471,"102":0.16605156759410794,"103":-0.09664301709897684,"104":0.026166993289424213,"105":-0.0948823860293322,"106":-0.0650827254339034,"107":-0.05795202412447156,"108":-0.21633820202178067,"109":0.14459510403611475}},{"sx":1,"sy":1,"depth":110,"w":{"0":0.05270354771589813,"1":-0.0028410107992968324,"2":0.008756629436663369,"3":0.16456315134019153,"4":0.20043309891735683,"5":0.10750099888805341,"6":-0.11070645815327589,"7":-0.0510899878855532,"8":-0.10106639450948808,"9":0.08110116031604729,"10":-0.2126888948847664,"11":-0.06907557497175587,"12":0.09507197637447769,"13":0.20613841610131164,"14":0.0344106372754042,"15":0.02607333409693558,"16":0.006313271306338512,"17":0.012269956970855065,"18":-0.050130458165514875,"19":0.099269830369275,"20":-0.12186948531711993,"21":0.04578732504292417,"22":0.17258208818527304,"23":0.030180637771324167,"24":0.07062499954088433,"25":0.04174054879089304,"26":0.1778607642857171,"27":0.0871918022476705,"28":-0.018435859219867252,"29":0.06655681528448147,"30":-0.08520963339271377,"31":0.009453739348005374,"32":-0.05050679976645711,"33":0.043936542886106204,"34":0.09515891580626613,"35":0.04641926981959025,"36":0.030808803755593365,"37":-0.20099724255084828,"38":-0.04730703764537833,"39":0.0808501611505062,"40":0.11850104662005442,"41":-0.07298293258997411,"42":0.03858470803520635,"43":-0.16892899313087187,"44":-0.11021634027494741,"45":0.009101712435164453,"46":0.1597719942528681,"47":-0.006319459818816228,"48":0.13237496601729537,"49":-0.062367575852412746,"50":-0.009653924281746485,"51":-0.09247802318086507,"52":0.056079303988677366,"53":-0.0998327830433202,"54":0.04011462200006995,"55":0.011736096030825354,"56":0.1783514378494399,"57":0.010398116846014275,"58":0.14856925585128597,"59":0.09478446927121803,"60":-0.10378105381313585,"61":-0.023838471136606598,"62":0.13149911091269367,"63":0.02997565661505639,"64":-0.020781665260246242,"65":0.14699671845200943,"66":0.1332857608714284,"67":-0.0212944748861525,"68":0.03162227726136486,"69":0.027831927669450213,"70":0.006877334015698311,"71":0.14969529258476363,"72":-0.07965353546333134,"73":-0.022610686818943692,"74":0.013208413101474147,"75":0.016683495990612068,"76":-0.007319728862873633,"77":0.14444944205699953,"78":0.047936593587969804,"79":0.011444572700303515,"80":0.1645350661299399,"81":0.03826202473301217,"82":-0.0793406801973655,"83":0.0701131079911338,"84":0.03634707814810712,"85":0.01283915284370154,"86":0.15190143440743326,"87":-0.10513752575449951,"88":-0.05712317154255247,"89":0.0047505963086975364,"90":0.006667169998299956,"91":0.01701682253557671,"92":0.14396148942127876,"93":0.02714040440806918,"94":-0.11157904330302902,"95":0.23243010805710834,"96":0.13878512012294822,"97":0.08351618116181542,"98":-0.00514033954441862,"99":0.00990690780084937,"100":-0.009257295669859094,"101":-0.08907737321757532,"102":0.02380743728136615,"103":-0.12313991209721065,"104":0.049244798756423645,"105":-0.0019414664447076205,"106":-0.0607931577909633,"107":-0.035648120655508674,"108":-0.09564722391481278,"109":-0.030393926385287536}},{"sx":1,"sy":1,"depth":110,"w":{"0":0.06787073419505796,"1":-0.011398163874568037,"2":-0.0079608437528306,"3":0.09523463449266006,"4":-0.07177739071301074,"5":-0.16213389078044338,"6":0.13830232540636064,"7":0.017417559493930004,"8":0.045753354035597354,"9":0.04870034819460617,"10":0.0722542608538795,"11":-0.010939631379540309,"12":0.12756639217765953,"13":0.05669940186874617,"14":-0.056071744981227904,"15":0.017011118911853102,"16":-0.04282161877150273,"17":0.011250992616590464,"18":0.037461625809732745,"19":-0.11010024905681348,"20":0.08155849082942283,"21":0.02883359970696648,"22":0.17720430292881426,"23":-0.12427882576027996,"24":0.08821958148353533,"25":0.03094347730447913,"26":-0.0700792036435535,"27":-0.027361250100307308,"28":-0.09582602874013281,"29":0.003643051200126105,"30":0.11271120409543525,"31":-0.06755421519184832,"32":-0.06187397002006007,"33":0.08605429836039566,"34":-0.0024061022329158873,"35":0.15078169040477454,"36":-0.14417743308701084,"37":-0.03573326035414794,"38":-0.15494739066573454,"39":0.0233165339007301,"40":-0.10960568705460913,"41":-0.045556653332451416,"42":0.06873802152753579,"43":-0.022411943318572335,"44":0.2018373335410347,"45":0.14839989303687215,"46":0.06063571540125706,"47":-0.07039781908639739,"48":0.11808347534824104,"49":0.02141762438390548,"50":0.007265576521072172,"51":0.02241612887187835,"52":0.06869943718015807,"53":0.1152436640622362,"54":0.1778020893878504,"55":-0.08757244663370825,"56":-0.10778330780064108,"57":-0.07088345853243641,"58":-0.04313443540281692,"59":0.04519552663189075,"60":0.10017437919275125,"61":0.12739403802890695,"62":0.17730938716847314,"63":0.015007872709526355,"64":-0.16161503502648888,"65":0.04541080951600808,"66":-0.19088375292393966,"67":-0.03507095946135249,"68":-0.025547795785278053,"69":0.0008927516848411058,"70":-0.010716689553740234,"71":0.025110866197200623,"72":0.09947639003367473,"73":0.013473250461114607,"74":0.014055604633505258,"75":0.06489009543565315,"76":0.13589773684318873,"77":-0.031724845490365944,"78":-0.03491888766312549,"79":0.10374013736945972,"80":-0.023261648013930273,"81":-0.10776673296360939,"82":-0.16813360643358738,"83":0.07848510041939048,"84":-0.0664093250001773,"85":0.08876909167151731,"86":-0.010872899022391098,"87":-0.00951989005381595,"88":0.04757560813380808,"89":0.005257397740276338,"90":-0.16254487913839938,"91":0.09614182260702508,"92":-0.021648897325772052,"93":0.022909313268736377,"94":-0.005183900267723291,"95":0.1180181605610272,"96":0.003981305267269219,"97":-0.18304983897845992,"98":0.02745430695137822,"99":0.0012171551130690165,"100":-0.13786595504191515,"101":-0.0965351153170402,"102":-0.13674748461590147,"103":0.046632104856221046,"104":0.024372480117974275,"105":-0.11330492609174214,"106":0.1932138514373901,"107":-0.00941395205842437,"108":-0.055413641100313646,"109":0.06282725596043942}},{"sx":1,"sy":1,"depth":110,"w":{"0":0.010238845026451232,"1":-0.09745157470669398,"2":-0.15031146157714656,"3":-0.12103022236901971,"4":0.07727357222732864,"5":-0.08810835163878225,"6":0.13617780791121595,"7":0.023095338125023953,"8":-0.030539589219666815,"9":0.11134693031177269,"10":0.020830249966056032,"11":0.05005725744530799,"12":-0.02581913453575096,"13":0.14487074506292189,"14":-0.26166558756277586,"15":-0.18738300932312632,"16":-0.20434717967345575,"17":0.039492162187995936,"18":0.022313608231277007,"19":-0.06538685816322329,"20":0.026101866723320884,"21":0.02979346001759357,"22":0.1537395243545887,"23":-0.09188403591815539,"24":0.05164050101900288,"25":-0.1355677065036437,"26":-0.08472565296208351,"27":0.06737474455866278,"28":-0.023348031361008596,"29":-0.04480058698875265,"30":0.03909846598495521,"31":-0.07778500593449342,"32":0.042738277757654534,"33":0.006943827256524277,"34":-0.10364208010816155,"35":-0.060154559546478616,"36":0.005318164428668723,"37":0.12101198882729412,"38":-0.05864234509948284,"39":0.12181894327870195,"40":-0.14821104950408137,"41":-0.07866417652928685,"42":-0.05348750239405048,"43":0.04892576728294556,"44":-0.057762687463669665,"45":0.15443780609334812,"46":-0.08137484331948582,"47":-0.03759353549608752,"48":0.053423105496027475,"49":-0.03638956461372984,"50":0.11581718169359215,"51":0.07556058576517909,"52":0.030308938419709955,"53":0.1175804340466055,"54":0.13038709800316398,"55":-0.03454285703433774,"56":0.06786937890335933,"57":0.025190036769112387,"58":0.03962300094814028,"59":-0.12042139980118281,"60":0.046221605529345317,"61":0.08778930977709688,"62":-0.06228805428817287,"63":-0.08902691413524906,"64":-0.13969116715962332,"65":-0.062344601187143835,"66":-0.002586668888790991,"67":0.05786889272562839,"68":0.12035087004533213,"69":0.014766482550046468,"70":0.00073247437449961,"71":0.003973206224391622,"72":-0.23385965230109934,"73":0.1322909935573748,"74":-0.07097302357164621,"75":-0.07871131854158578,"76":0.053232471675362394,"77":0.007413666735548202,"78":-0.011163427451244374,"79":-0.2656800082541746,"80":0.0815124425310373,"81":-0.20704902848581824,"82":0.009873505629738015,"83":0.21746634644526597,"84":0.08720782549953096,"85":-0.061546488964583944,"86":0.044650266367056504,"87":-0.012288112932958941,"88":-0.014068469970071754,"89":-0.06638201453078126,"90":0.019984199163407664,"91":-0.1627167835768491,"92":-0.012125517568960922,"93":-0.017581538462561504,"94":0.027032584507793268,"95":-0.005212094212952287,"96":0.014579999793201414,"97":0.017839350452550435,"98":0.12192192260542276,"99":-0.12429500865773509,"100":0.021488952781714525,"101":0.050584819259440854,"102":0.03479780094628973,"103":-0.02522493162163602,"104":0.022474174484937097,"105":-0.05407928437016481,"106":-0.2360351564736803,"107":0.08530606202213466,"108":0.0492568621218615,"109":-0.07881653578946018}},{"sx":1,"sy":1,"depth":110,"w":{"0":-0.02642543541633257,"1":-0.011867796338105493,"2":-0.08977927890122318,"3":0.03779411384495197,"4":0.09166965850297214,"5":0.026360557023461274,"6":0.041711360826043854,"7":0.09981165305702046,"8":0.05018636623449847,"9":0.04362021640184532,"10":-0.09421245517129007,"11":0.1396608809570314,"12":0.0686829355492011,"13":0.1160063725510838,"14":0.15530960720110218,"15":-0.13927706607699766,"16":-0.03665602938217227,"17":-0.03290565950428623,"18":-0.10342208544196614,"19":-0.131362573616898,"20":0.05047834525169628,"21":0.05966337950633732,"22":-0.0167941171995166,"23":0.025025169572293754,"24":-0.08713477660044996,"25":-0.01688493678493953,"26":-0.041106534047014816,"27":0.013153212151950987,"28":-0.07297332511679813,"29":-0.004738949543193394,"30":0.009012079081742662,"31":0.1834242498876039,"32":0.07641367432284522,"33":0.00002941398416103624,"34":0.017823699222600475,"35":0.10295792819281852,"36":-0.042834913299327114,"37":-0.08242580182701886,"38":-0.16319890259217396,"39":-0.22234046930797272,"40":-0.04733049441697524,"41":-0.15324233767468762,"42":0.19779165901989115,"43":0.014187575751237188,"44":-0.051011416526740995,"45":-0.24917754754818586,"46":-0.011680802024901968,"47":0.006446929201776657,"48":0.0987544073898091,"49":0.08778178811329529,"50":0.0699066898277049,"51":0.07527358305745291,"52":0.07400155076082758,"53":-0.0234204361513789,"54":0.04868855295587563,"55":-0.10806211760446661,"56":0.21130510282400258,"57":0.012551365138179142,"58":-0.10080131660512387,"59":0.03037664993948412,"60":0.03139449332025533,"61":0.0670386833510916,"62":-0.142790809380924,"63":0.09077969512313694,"64":-0.0031175580058623205,"65":0.09939124681271512,"66":-0.005276743883248742,"67":0.11576193885076519,"68":-0.05377549762110033,"69":-0.08081947059019508,"70":-0.10563416483557511,"71":0.1595353524695936,"72":0.005928398221535129,"73":0.035684302946031025,"74":0.11320601245726408,"75":-0.07061828190605965,"76":0.07221916576710462,"77":0.04147389852846719,"78":0.06280215109085419,"79":0.019847076223823517,"80":0.05632472972861964,"81":0.05747813976328241,"82":-0.15178677076607097,"83":-0.019013048489710357,"84":0.11966614203241678,"85":0.022201315142004102,"86":0.04614084100206543,"87":0.06568681506675358,"88":0.19625680284336586,"89":-0.028115784491439373,"90":0.09209213815716805,"91":-0.10606195588771115,"92":0.010994342218835471,"93":0.08035688823639389,"94":0.017123807054623925,"95":-0.09698566058843307,"96":-0.016765420862306854,"97":-0.08201855041828919,"98":0.12655906959837152,"99":0.10741965481320469,"100":0.03135489947801235,"101":0.26046574277703766,"102":-0.13286576483066626,"103":0.004468569502175366,"104":-0.16953467219738236,"105":-0.21040282235198776,"106":0.036240378885972264,"107":-0.006108613690461939,"108":0.07235747020825253,"109":0.10728845117887083}},{"sx":1,"sy":1,"depth":110,"w":{"0":-0.1118484533574729,"1":0.15370936808259644,"2":0.07537498747308757,"3":-0.08576182759396894,"4":-0.0044722834222043545,"5":-0.016336123124149317,"6":-0.034774580255563486,"7":-0.005954261711561986,"8":-0.1446226502894882,"9":-0.11839294172042596,"10":-0.10044582352520547,"11":-0.026256544837393942,"12":0.012770484677146214,"13":0.1338614531361767,"14":-0.01632419564362359,"15":0.0451188958698983,"16":-0.1453847592116891,"17":0.12923514077148293,"18":0.0740001483129497,"19":0.15559606751539465,"20":0.019216947885852282,"21":0.11470653981694585,"22":0.1583360963843602,"23":-0.0007868072425026305,"24":-0.10133107225471245,"25":0.05362034221995973,"26":0.040253962499013564,"27":0.07159718716261672,"28":-0.16948046942856704,"29":0.1797700490986436,"30":-0.129839264253189,"31":0.016298925726967853,"32":0.14183260410445248,"33":0.02161122993526292,"34":-0.04237541006769015,"35":0.08256353758115076,"36":0.11245726873688255,"37":0.007697956606354134,"38":0.022318199771861422,"39":-0.06185632642950992,"40":-0.041564928805132184,"41":-0.13037077921928134,"42":0.10192945161721298,"43":-0.03382674852336851,"44":0.10488627932494331,"45":0.1473389885602931,"46":0.10578620113971858,"47":0.09187413929934514,"48":0.006205687839277114,"49":0.0816439495824505,"50":-0.07841441367914433,"51":-0.036799765289615226,"52":-0.08796023761558792,"53":-0.08538649010978601,"54":0.11644122808859814,"55":0.15275616872596123,"56":-0.05760871156365606,"57":0.2095400447305846,"58":-0.1806663720319266,"59":-0.12875634717171497,"60":0.06636534516958681,"61":-0.012124750618976634,"62":0.0010897474397338885,"63":-0.060785849780613854,"64":0.010263002462774614,"65":0.03252263420541234,"66":-0.04877235443151649,"67":0.046277465108671985,"68":-0.21047428204040913,"69":0.03228634238584804,"70":-0.12655442217761262,"71":-0.14603489813286114,"72":-0.02846937730781621,"73":-0.07331567685015128,"74":-0.062199168929708046,"75":0.018084940466247847,"76":-0.23287196039743768,"77":0.02057293250909583,"78":-0.06026870287478866,"79":0.043458504458927294,"80":0.034615457906582235,"81":-0.07423221675120303,"82":0.08011723159320011,"83":0.01007010827056782,"84":0.08543157986369518,"85":0.021328047771927757,"86":0.12601391934897652,"87":0.020281114953697943,"88":-0.0701846273038007,"89":0.10856111946896722,"90":0.06962064713729041,"91":0.05688755085266516,"92":0.02850487702074569,"93":-0.01651110133915447,"94":0.1497097153208812,"95":0.1929638861523092,"96":0.066469947864327,"97":0.09153420592301992,"98":-0.04213044455230876,"99":-0.001798751569086006,"100":0.024031665718963206,"101":-0.07735196093007306,"102":0.021851299990267692,"103":0.034670191531674534,"104":0.002768003927092792,"105":0.010713801318117859,"106":-0.05809224792195672,"107":-0.002742824146092832,"108":0.06967362587089825,"109":0.13083073991175379}},{"sx":1,"sy":1,"depth":110,"w":{"0":-0.013348277077018052,"1":-0.0278370871123515,"2":0.04593808662218094,"3":0.1368607620685646,"4":0.02857666319532005,"5":-0.055033761120518304,"6":-0.049542266063154136,"7":-0.10838480151920049,"8":-0.2887729104576544,"9":0.07146411346791205,"10":0.13867516512951222,"11":0.16194601223385205,"12":-0.18551577898829325,"13":-0.0909891000141102,"14":-0.18146323945088996,"15":0.0051875956327784994,"16":0.07252208588877725,"17":0.056564727986823785,"18":-0.06624317086810597,"19":-0.04924172453336413,"20":0.029327743061447326,"21":0.07511005700691112,"22":0.006575353278023229,"23":0.05487662588094393,"24":-0.04388373196515258,"25":-0.07858911163195266,"26":-0.05641036509204543,"27":0.09846206258345874,"28":-0.04005496901840928,"29":0.04497431412001704,"30":-0.04739856147783191,"31":-0.0010619915986762511,"32":-0.006108925171255778,"33":0.00865794428265356,"34":0.26055709048811315,"35":-0.07341072738738742,"36":-0.1353169965830313,"37":0.009570479343643109,"38":-0.07437445049530626,"39":0.06250688958724251,"40":0.12833607732715566,"41":-0.04506511177747619,"42":-0.1764064344820921,"43":-0.08943574975383099,"44":0.06980391510956167,"45":0.015365515866101876,"46":-0.03674602311276544,"47":-0.0710292699377255,"48":-0.14287405617616622,"49":0.02633777222803301,"50":-0.03581623229285896,"51":0.19766653418139288,"52":-0.11938276406239196,"53":0.06109768690788262,"54":0.18363388405836906,"55":-0.01841942626370964,"56":0.03371446322651964,"57":0.09987121122689416,"58":-0.01267272081171606,"59":-0.03187683620458987,"60":-0.15483565656680934,"61":-0.008251864472896142,"62":0.15802681440369334,"63":-0.04618529128775849,"64":-0.08774324466678894,"65":-0.11409617520795999,"66":-0.020778856359546048,"67":-0.15538814390001088,"68":0.11139536940490397,"69":0.05305915306282548,"70":-0.05590306389374657,"71":-0.15753493078787173,"72":-0.005703026778596242,"73":-0.041453229575737306,"74":0.0595474687686481,"75":0.08291466718577511,"76":0.03561151834184497,"77":0.07490437833251552,"78":0.04573501837639985,"79":0.029022740935814414,"80":-0.00538747782532658,"81":-0.132045216450635,"82":0.10161907629898352,"83":-0.05457871060374434,"84":-0.007762321870687815,"85":0.040536571465538615,"86":-0.062274938270171346,"87":0.014154045536225547,"88":-0.014679691363463393,"89":-0.048304175213694046,"90":-0.045115189007461635,"91":-0.08376992316623671,"92":0.03686033435306093,"93":0.08021358126244856,"94":0.035471468293332094,"95":-0.11877951076191076,"96":-0.06761609708708581,"97":-0.003506321892894526,"98":-0.012898377444566025,"99":-0.22331102786768706,"100":0.015948075701316462,"101":0.04579539404353539,"102":-0.032734997483272264,"103":-0.09638689855873336,"104":-0.12024162976004771,"105":0.008525745346309782,"106":-0.06225810797617318,"107":0.02518866911862946,"108":-0.06184303558428507,"109":0.09539961224779167}},{"sx":1,"sy":1,"depth":110,"w":{"0":0.0754211020560837,"1":0.016375729166918627,"2":-0.03787893547365524,"3":-0.02166863497505725,"4":-0.08364807032889672,"5":-0.057221172522498566,"6":0.18386502614871195,"7":0.10941409452562446,"8":0.03781325381862966,"9":0.09289018082709892,"10":-0.11960501270885207,"11":-0.07376577554641618,"12":0.11929492854083262,"13":0.0920277118185133,"14":-0.10248812651842416,"15":-0.010448873929675173,"16":0.16132393611271845,"17":0.12424538496426034,"18":-0.06452185697276995,"19":0.04435076548045974,"20":0.04436926457007088,"21":-0.07119837138573794,"22":-0.06841523249811908,"23":-0.026043701753689287,"24":-0.05641838561640242,"25":-0.03706475772279191,"26":0.009204478079642786,"27":-0.039579782128917794,"28":0.047410497085256804,"29":0.0331761798575552,"30":0.048998230887968376,"31":0.03937797886051939,"32":0.014603375181375297,"33":0.20244439864466038,"34":-0.06101926494921187,"35":0.03902051894506771,"36":-0.05919523087930145,"37":0.010369462062695723,"38":0.12003243711833618,"39":-0.00022156260413849768,"40":0.05869467125736087,"41":-0.12388759591458964,"42":0.11135171031812888,"43":0.026655958826669567,"44":-0.08580760973647807,"45":0.1509554014896739,"46":0.003703456228600986,"47":-0.019431117929647884,"48":-0.04786571170077462,"49":-0.0062065046462297085,"50":0.010689136845113242,"51":-0.06963630542044841,"52":0.07107854358320759,"53":0.07847587345124915,"54":-0.09442414529945894,"55":0.1630043122703751,"56":0.09943219843072666,"57":-0.0075128782044349,"58":0.010094536138447501,"59":0.11499650737248128,"60":-0.02350342641128663,"61":0.06790795742867904,"62":0.055581854573504307,"63":0.015273595120142926,"64":-0.039985117202843055,"65":0.014418195739735613,"66":-0.10143309095152951,"67":0.07187717707905375,"68":-0.020335372391339365,"69":0.05586157835364494,"70":0.21856339556740584,"71":-0.20407585012931778,"72":-0.07161629273653967,"73":0.034683295861568535,"74":-0.01426281527508161,"75":0.07285497955790447,"76":-0.03752158479380202,"77":0.08616846377381829,"78":-0.013573347587433903,"79":-0.17852571847596227,"80":-0.07507096605397727,"81":-0.03613397670099962,"82":-0.08211685806178304,"83":0.12282488925535161,"84":0.09743474288271443,"85":0.041343228657943126,"86":0.06326448548144814,"87":-0.10088943509408613,"88":-0.13992114755009638,"89":0.053011176740041716,"90":0.07216110426562224,"91":-0.08546823182558297,"92":-0.07752824733688118,"93":0.07213675394036562,"94":-0.029504130797699146,"95":-0.05869627340370477,"96":0.04648984664308667,"97":-0.1522043342163789,"98":0.12747312842586989,"99":0.03867959559820944,"100":0.04307011807280044,"101":-0.1030058382937529,"102":0.10773901024104005,"103":0.01843644910473926,"104":0.09200882581724362,"105":0.07951850287153506,"106":0.12762599287132556,"107":-0.08481315981576293,"108":-0.05312094685143897,"109":0.10460484955302543}},{"sx":1,"sy":1,"depth":110,"w":{"0":0.024134301564854087,"1":-0.03403980402515733,"2":0.046112999318122044,"3":0.03767429265437877,"4":-0.0140934819234156,"5":0.08532251314571454,"6":0.03890079890150381,"7":0.023211998025880122,"8":-0.11929938214261904,"9":0.02017658999494756,"10":-0.04977676625260415,"11":-0.03375000183185105,"12":0.23140587734044663,"13":-0.11031958654001416,"14":0.005360089628784658,"15":-0.0832115998815907,"16":0.030712512938747768,"17":0.19406029240058442,"18":0.06665148353546248,"19":-0.03949791878340013,"20":-0.22236939162859037,"21":0.09941442076491752,"22":0.051769052246267495,"23":-0.10255606013020196,"24":-0.058083373713716024,"25":-0.10301900254799295,"26":0.005960085092280744,"27":0.003769405103418239,"28":-0.07108130390224249,"29":0.18547505190525157,"30":0.03979058389575524,"31":-0.03054568055201326,"32":-0.004565567048968066,"33":-0.05489816297605278,"34":-0.09897974916673455,"35":-0.00918809199714584,"36":0.03306767244040658,"37":-0.1789984616872463,"38":0.09798385078668008,"39":0.0591771329269075,"40":0.0518828218452068,"41":-0.07605063055182708,"42":-0.10167715801379086,"43":-0.1463521413431297,"44":0.06257748667921831,"45":-0.0376476635937494,"46":0.04844150004115522,"47":-0.24072560738486556,"48":0.011113136118270818,"49":0.09699836288444802,"50":-0.06570333415106332,"51":-0.11308493989203271,"52":0.07150887466640361,"53":0.06600946606102516,"54":0.07683537406463536,"55":-0.033854431323466216,"56":0.1409044507481078,"57":0.03782761779064093,"58":-0.1393340662267664,"59":-0.08134085546921221,"60":0.09982677834530088,"61":-0.046833272860767744,"62":0.11817117772585811,"63":-0.08071680862591842,"64":-0.014507062741430574,"65":-0.19471897483610917,"66":-0.035334982603780374,"67":-0.05895183137436059,"68":0.011082007781072552,"69":-0.04879852189582784,"70":0.07505766312221544,"71":-0.0038744169629137955,"72":0.05353590531999913,"73":-0.0374198333608282,"74":-0.006577467971982276,"75":0.05989608837992384,"76":0.04084919271887785,"77":0.02759562546490078,"78":-0.11786100802301964,"79":-0.010795845305792832,"80":-0.033552785020320754,"81":0.05086953276764048,"82":0.03889848441988127,"83":-0.14451716614632973,"84":0.009627667010912227,"85":0.0212671041090857,"86":-0.10215612332921971,"87":-0.02449012604126483,"88":-0.0028865095286733154,"89":-0.011975894127488541,"90":-0.0023898183357391484,"91":-0.023287704485966274,"92":0.21913585172579716,"93":-0.080913761263793,"94":-0.03784723161646546,"95":0.09891024363016507,"96":0.0690951928603927,"97":0.04642914552506625,"98":-0.08605567564232242,"99":-0.09549057117762773,"100":-0.02725052274467958,"101":-0.047647631273371294,"102":0.03371413241905653,"103":0.005832315475267993,"104":0.021954898461920946,"105":-0.06239039889008227,"106":-0.052405118141557856,"107":-0.0462776138338045,"108":-0.10859544129622889,"109":0.10839687178788547}},{"sx":1,"sy":1,"depth":110,"w":{"0":0.13841382324566068,"1":0.01600385731444876,"2":-0.20101516112788084,"3":-0.0017998234935929054,"4":0.021869329165072497,"5":0.03866078135561264,"6":0.011049413541428762,"7":-0.021537007422797603,"8":-0.1169249740891021,"9":-0.1287014224339151,"10":-0.036243764607300596,"11":-0.007746922037859155,"12":-0.08598557549312426,"13":0.03604411521196554,"14":0.14308847830662358,"15":-0.005963372084325673,"16":-0.03723343682689697,"17":0.14689564419437107,"18":-0.11020215692989112,"19":0.02199586270598286,"20":0.043462268259932504,"21":-0.08787247387035345,"22":0.12023678888502176,"23":-0.004676655364323906,"24":-0.04958884266224069,"25":-0.04895757217267432,"26":-0.1324403407903694,"27":-0.01603034051402191,"28":-0.06631406592466453,"29":0.009220478111954247,"30":-0.09691648655333066,"31":-0.06061220257628834,"32":0.022588703078021716,"33":0.09604528677560856,"34":-0.03439830734357925,"35":0.15766125695619032,"36":-0.0741716979687695,"37":0.054333983307625476,"38":0.11189623767044488,"39":0.00005114808758570415,"40":0.11697806326042301,"41":0.13004981328295692,"42":-0.009933877585956792,"43":-0.015015903175157688,"44":0.19223855506984092,"45":-0.08056666618390072,"46":0.0837456115916925,"47":-0.14168107938690033,"48":0.07495963938979451,"49":0.02154755050149904,"50":0.009474077397641724,"51":-0.03427690540424861,"52":-0.06793005820027757,"53":0.011860226423324795,"54":-0.11513357165326484,"55":-0.19152577470405818,"56":-0.08481646290768456,"57":0.06897339192470371,"58":-0.09465225314433079,"59":-0.07162687087375665,"60":0.004623961438760109,"61":-0.08793589665391618,"62":-0.014634046156782026,"63":0.0546194802625121,"64":0.01964334391374842,"65":-0.029881873932251314,"66":0.0393945925577551,"67":-0.06262518507487817,"68":-0.07338856995189236,"69":0.03726775407175333,"70":0.07276407241434915,"71":-0.06313003681696862,"72":-0.07574814679975965,"73":0.04851986721439285,"74":-0.028812631977140887,"75":-0.10143160995059464,"76":-0.04290000419177791,"77":0.15164598553736486,"78":-0.19656167870910823,"79":0.024760718682909875,"80":0.044177674102979285,"81":-0.026634926129699175,"82":0.08209032742533134,"83":0.11564482179442692,"84":-0.054858002186656284,"85":0.0227430147946877,"86":0.07383906236701594,"87":0.07969485269731687,"88":0.01889052493529541,"89":0.07133442570572984,"90":0.12140215694968846,"91":0.07134049402047318,"92":-0.15915373615398498,"93":-0.06451120799179887,"94":0.08829887112344693,"95":0.0035270578657513488,"96":-0.09470804657871248,"97":-0.06800927152044398,"98":0.05396776724019036,"99":0.10560755417634242,"100":0.08360696621587983,"101":0.08221590152650371,"102":-0.059504448013680475,"103":0.026061161750009765,"104":0.06295760561146793,"105":0.07281252176072042,"106":0.0006713723022651948,"107":-0.15353206422516816,"108":0.09732791404601927,"109":-0.10402286668184363}},{"sx":1,"sy":1,"depth":110,"w":{"0":0.031904155258087125,"1":0.17422675650216277,"2":-0.025727437197826667,"3":0.14775098553996677,"4":0.29789973872212155,"5":0.2521911583056457,"6":0.07179849366621009,"7":0.07331167225831657,"8":-0.06755726500930559,"9":-0.12674304164467304,"10":-0.08608668203857218,"11":0.10094651060875301,"12":0.017902940221822084,"13":-0.02913281031430853,"14":-0.014863661755420254,"15":0.0003851854759365235,"16":0.10556955886184542,"17":-0.03489853831088419,"18":-0.08433658690734286,"19":-0.09514175778809857,"20":-0.16368349522840042,"21":-0.10320266422783185,"22":0.08424471255035647,"23":0.03662337039984589,"24":-0.022559728882001202,"25":0.18479744528449257,"26":-0.07886098133410956,"27":-0.10492947600342531,"28":0.1058093571328214,"29":-0.06677505704747824,"30":-0.018863535016107522,"31":0.02249809732834009,"32":-0.11023212824728332,"33":0.03953952538324961,"34":0.037801337872289495,"35":-0.11036262705294789,"36":-0.05044765386002771,"37":-0.05289915706664361,"38":-0.20838989391185417,"39":0.06927984918905708,"40":-0.0322209711904176,"41":-0.012415733458004435,"42":-0.0021665513712153936,"43":-0.05142015998227185,"44":0.028398450165781,"45":0.19603698122921126,"46":0.06956037152150707,"47":-0.020218539323358084,"48":-0.060248687311988236,"49":0.09497141474894936,"50":0.23249912434938647,"51":0.030242864375298273,"52":0.09145963969109666,"53":0.030572199367853724,"54":-0.027885409702494802,"55":0.026460101966406455,"56":-0.22044917153882537,"57":-0.056278429937416455,"58":0.16729756648082897,"59":-0.051713916668929036,"60":-0.1376217984695326,"61":-0.10332644765513853,"62":-0.07526083748447658,"63":-0.06994144715128572,"64":0.020325288615966552,"65":-0.07442807631523865,"66":-0.025555325057327168,"67":-0.04242712547277655,"68":0.02774232291592025,"69":0.024090667847592454,"70":-0.145852675611924,"71":-0.06867410162795869,"72":-0.028836684581777936,"73":0.03918068875390384,"74":0.054442363594200495,"75":0.07216316710872907,"76":-0.05951370406201103,"77":-0.07984097257884763,"78":-0.07003882079389054,"79":-0.08271158172280021,"80":-0.14339865007596717,"81":0.05711807407921148,"82":0.1074456497261676,"83":-0.036933025092773186,"84":0.008862332633744856,"85":0.22063251185747748,"86":0.198635395151459,"87":0.027399669415482858,"88":0.06454816229785053,"89":0.050772597695661635,"90":-0.07574600078805986,"91":-0.004697457045195685,"92":0.08619183332799793,"93":-0.060676878984754656,"94":0.0016855571135755462,"95":0.024419203641030743,"96":-0.1741078344200695,"97":-0.08519402796183997,"98":-0.044418033268454796,"99":-0.05336253812155668,"100":-0.048270979460977505,"101":-0.10967462578594267,"102":-0.06825042564237821,"103":-0.06821561224148234,"104":-0.08782026721979008,"105":0.07395293270423764,"106":0.02502717049205285,"107":0.0024083720271660994,"108":0.10313446312153322,"109":-0.11247138483833086}},{"sx":1,"sy":1,"depth":110,"w":{"0":-0.06717915408431575,"1":0.09738883253908963,"2":0.029191295175250254,"3":-0.20870515774936696,"4":-0.0339504118257468,"5":-0.0218976907371287,"6":0.04725617643659626,"7":0.08624688733731459,"8":-0.05139873752628764,"9":0.11900241418190223,"10":-0.03075641341811163,"11":0.007070153592097091,"12":0.14420513126010095,"13":-0.006489488610816224,"14":0.036681137649974244,"15":-0.09403820945335199,"16":0.028150273090592485,"17":0.007431073821776705,"18":0.056151705064696404,"19":-0.05070152139536618,"20":-0.0764747775699567,"21":0.06741977919970325,"22":0.045239090918276374,"23":0.022321208506018778,"24":-0.005124731131318143,"25":-0.04567667427794372,"26":0.09126041410288678,"27":-0.002901530570192522,"28":0.02672863991360548,"29":-0.10578418388910592,"30":-0.17181971035854954,"31":-0.12380166473624057,"32":0.09948470340468442,"33":-0.08178362395848475,"34":0.02329280082563795,"35":0.037852675871490285,"36":-0.002912257486240641,"37":-0.019393782884057555,"38":-0.2292382676313102,"39":0.10862177957640687,"40":0.014289384853970096,"41":-0.1304703355512845,"42":0.021600339815104754,"43":0.0995420642982269,"44":0.12072519494775291,"45":0.09400565420852801,"46":-0.03465794067307371,"47":-0.056152231362168854,"48":-0.11647427717433531,"49":0.06135526207710181,"50":-0.016653507600695474,"51":0.020831215627891093,"52":-0.0311630998196389,"53":0.0416599430973892,"54":0.0074025906555935,"55":0.1281324918591558,"56":-0.07298065734183037,"57":-0.08877507459369151,"58":0.03190482514322372,"59":-0.16516096128836813,"60":-0.09723701295963418,"61":-0.09489545329987548,"62":-0.09910205851432201,"63":0.027419242607069162,"64":0.1329192757700559,"65":0.06375848144213483,"66":0.017027140398579808,"67":-0.03966495973498143,"68":-0.0214820289231013,"69":-0.048775444042557244,"70":0.11114288975273992,"71":-0.012767153472506156,"72":-0.13991340047110165,"73":-0.3016549772735567,"74":-0.12753336278739275,"75":-0.031906419726760456,"76":0.11289501233393147,"77":-0.07384796574819086,"78":0.0010225474273966517,"79":-0.06128002799799203,"80":-0.20850360061986806,"81":-0.02889055035412847,"82":-0.0012384591438380787,"83":-0.14945414202197033,"84":-0.04560869070290646,"85":0.09009955744989155,"86":-0.13595649033649357,"87":0.03293365720338489,"88":0.01850784825945532,"89":-0.1451010825977305,"90":0.046349354668937526,"91":0.054584476851374186,"92":-0.08243208550346515,"93":-0.034832734247673,"94":0.052383959544857264,"95":-0.12369578113432192,"96":-0.1063831543963027,"97":-0.11583998637054378,"98":0.010433048019432041,"99":-0.030997878350151137,"100":0.1492529861316647,"101":-0.18293359451731053,"102":0.02563068831288811,"103":0.006359758589110512,"104":-0.09446363055368344,"105":0.018419317142304405,"106":0.07477323189964884,"107":0.13623061901985276,"108":0.09369600479789093,"109":-0.1593885920480042}},{"sx":1,"sy":1,"depth":110,"w":{"0":0.005146450218128495,"1":-0.12506449789819932,"2":0.016690609356270984,"3":0.010600211950565928,"4":-0.023970768285829377,"5":0.1667723777922825,"6":0.000601525795015885,"7":0.044505218309363166,"8":0.03359375869534427,"9":-0.03274160785578988,"10":-0.166428160513522,"11":-0.24052477524147617,"12":0.0433286975915621,"13":-0.19378359584801813,"14":0.18902059734099533,"15":-0.1124655280687176,"16":0.12827579825633878,"17":-0.07068591700869895,"18":-0.11284120177585999,"19":0.007191446326309572,"20":0.10907296366071126,"21":-0.06426976317966054,"22":0.11461447824055312,"23":-0.04617837286041883,"24":0.017142120035599694,"25":-0.06273668042812032,"26":0.09643706976658085,"27":0.071468411340882,"28":-0.04294712581667816,"29":-0.04929925642622848,"30":0.02188178787688842,"31":0.1985995863839088,"32":-0.12548661140099127,"33":0.1628899718517359,"34":-0.018014690914892228,"35":-0.04546783751613548,"36":0.15486421107519488,"37":-0.07506290878099894,"38":0.002470214937949048,"39":-0.0651124843056019,"40":-0.011294376956379906,"41":0.08607030661213058,"42":0.04588936588656324,"43":-0.1992983261634479,"44":0.044231885476769144,"45":0.03421611185181162,"46":-0.05684481622890537,"47":-0.04768334723855537,"48":-0.011474753121140812,"49":0.06506774709970364,"50":-0.08434791214466233,"51":-0.10321233600503207,"52":-0.0797680582355053,"53":-0.07127010310790467,"54":-0.17830166954121687,"55":0.1285496308508873,"56":-0.01843151508099509,"57":0.013547882512774903,"58":-0.13119556623299788,"59":-0.08529573100758438,"60":-0.020873147797433236,"61":-0.007854434897996327,"62":0.10866987273026027,"63":-0.09702383522173484,"64":0.13903306094572238,"65":-0.08062849525679784,"66":0.14402925004321668,"67":-0.0999832666180917,"68":-0.08558396154793718,"69":-0.03287765389171309,"70":-0.03190438229313787,"71":0.07188688562685933,"72":-0.033916067589610736,"73":0.002236330635548893,"74":0.21821298077003823,"75":-0.021779139154845594,"76":-0.12134597246701882,"77":0.004765693331046025,"78":-0.07255940615073678,"79":-0.028006910654622293,"80":0.011593450761494208,"81":-0.007761966602484548,"82":0.1469416518393443,"83":0.05262987130470835,"84":0.009430447215487572,"85":-0.025853003005690857,"86":-0.023580935691390692,"87":0.16526738426120824,"88":-0.0783564656385331,"89":-0.060114255431265924,"90":-0.015813666143374316,"91":-0.15917956490903673,"92":0.2111623478178992,"93":-0.11105359234139758,"94":0.008194421216463651,"95":-0.02592574004057466,"96":0.10178054480146938,"97":0.03801538707923911,"98":0.0192343380196246,"99":-0.012047967309856253,"100":-0.05501435551980882,"101":-0.10408574657878385,"102":-0.09048037318732355,"103":0.054431585921332064,"104":0.010022001269017837,"105":-0.14507497121854038,"106":-0.0486905771402676,"107":-0.23333081587752652,"108":0.004637395206246228,"109":-0.147319588656683}},{"sx":1,"sy":1,"depth":110,"w":{"0":0.1012220782753386,"1":-0.026767942631082637,"2":-0.02765748183077015,"3":0.1472024746117613,"4":0.17439157169809197,"5":0.1970289856817255,"6":-0.10911689644920518,"7":0.02228317575480959,"8":0.1120639560312112,"9":-0.04924254029227514,"10":0.1254812528419335,"11":0.1832937689788769,"12":-0.031592941878068645,"13":-0.03720285232066036,"14":0.21800694317655483,"15":-0.03753905423294854,"16":-0.12808370299398794,"17":-0.15935320391478575,"18":-0.01091139737045284,"19":-0.05400187622476378,"20":-0.0801032276652494,"21":0.09770856801020744,"22":-0.04004691367226591,"23":0.1087312884275106,"24":0.0010383893491834092,"25":-0.08085256318489124,"26":-0.06966409861620526,"27":-0.05525423271656287,"28":-0.05235026319521631,"29":0.1327884673617127,"30":-0.16345608928431227,"31":0.01603108209922091,"32":-0.13460886983501139,"33":0.033173305617757096,"34":0.005982086329810647,"35":0.08944105430207645,"36":0.06013176704952853,"37":-0.03269452760101614,"38":-0.06044409788411235,"39":-0.09932461458844617,"40":-0.04154305617851359,"41":-0.09738522639786747,"42":-0.11112772026107562,"43":0.022389230532455787,"44":0.09118282104250182,"45":0.026921185793617842,"46":0.01908614739148944,"47":-0.1485853641796724,"48":0.008436751649538237,"49":-0.033440535178985646,"50":-0.1457246942947588,"51":-0.013028905327992604,"52":-0.03817764737695944,"53":0.07141692497071235,"54":0.005907523157622957,"55":-0.011869313454696757,"56":0.058347298174177734,"57":-0.18909801931437067,"58":-0.1286106549470929,"59":-0.08260930122872154,"60":-0.13649366176046304,"61":-0.029207110156089493,"62":-0.04453715716050807,"63":-0.040812246655807925,"64":-0.06648585679705112,"65":0.0811850992310224,"66":-0.06604983008862116,"67":0.02705168446364288,"68":-0.09129068253552021,"69":-0.014094353022974864,"70":-0.06121160117515012,"71":0.06485402357415394,"72":-0.008419779384122358,"73":-0.06316456761079549,"74":0.017793046392537988,"75":-0.0759682320809324,"76":0.0794039043036174,"77":0.02543786089528942,"78":-0.11479437934146319,"79":-0.006850024366541505,"80":0.13867297522372396,"81":0.04393506368478988,"82":-0.08974456318583522,"83":-0.10989539260791299,"84":-0.03405237143850707,"85":-0.10342720796906149,"86":-0.04499666380889116,"87":-0.12192497070972008,"88":-0.07587733603413115,"89":0.006480927130188606,"90":0.03131914697223582,"91":-0.020803223959519758,"92":-0.07968119108645769,"93":-0.0828133899127162,"94":-0.0026516988600262356,"95":-0.18084751050216027,"96":0.029032457608315975,"97":0.1502179829070234,"98":0.009714589205600038,"99":-0.07984439725163432,"100":-0.04055204868292233,"101":0.19284554174584645,"102":0.05376937763297043,"103":0.03575707510154374,"104":-0.22116032738075017,"105":0.07996859949166556,"106":-0.08959692764205464,"107":0.051106806313510875,"108":-0.027409441818295337,"109":-0.059427940837709935}},{"sx":1,"sy":1,"depth":110,"w":{"0":-0.021284438245088626,"1":0.09159043438129491,"2":-0.11508502965751315,"3":-0.08676698471608484,"4":0.025140276441491964,"5":0.18337698532654728,"6":0.00023381852876525294,"7":-0.2422896384492696,"8":0.07053175740546559,"9":0.015181892214033666,"10":0.10277576105299874,"11":-0.0646975170310696,"12":0.02976384223738093,"13":0.10315253501888644,"14":0.09347700365579366,"15":0.14100381354196895,"16":-0.06646697034362654,"17":-0.08375108794609692,"18":0.0654683822324987,"19":-0.10227060601307175,"20":-0.03188296837640494,"21":-0.15411242940450595,"22":-0.06300550451628091,"23":-0.009697379521234619,"24":0.019611496814088122,"25":-0.09401243777768203,"26":0.14153509041643997,"27":0.09367704459176775,"28":0.10176831984551146,"29":0.020223484038973092,"30":0.1817757385626069,"31":-0.09273427734376165,"32":-0.1318025516896992,"33":0.020114585655841028,"34":-0.02731078793311631,"35":0.04771224544974191,"36":0.005002163071711154,"37":-0.1363195237530192,"38":-0.1147921019326097,"39":0.04390420097501597,"40":-0.016537745996575363,"41":-0.07667992281905239,"42":-0.02862213426288055,"43":-0.07687589920047978,"44":0.047405733737255144,"45":-0.012780683380812419,"46":-0.008122330588364797,"47":0.02029208066743541,"48":0.1981477988211106,"49":0.03587015477792134,"50":-0.08827592499341828,"51":-0.07191314077319477,"52":0.006992616299478777,"53":0.019754688546433096,"54":-0.014707842351465156,"55":-0.06096792631218417,"56":-0.0854803995119689,"57":0.02832271605934103,"58":0.040817956044113105,"59":0.11106661922178636,"60":-0.02413458485387798,"61":0.011571535450118424,"62":0.054633367724978975,"63":0.004560875677592612,"64":0.09644282974754648,"65":-0.0855338847719111,"66":0.03334396775488688,"67":-0.27119579192936805,"68":-0.08062583142585779,"69":0.023069946081323275,"70":0.09028794848505309,"71":0.02359555215010741,"72":-0.062366272533563936,"73":-0.08343596554647394,"74":0.03185165497017943,"75":-0.1335690913266165,"76":0.02903794870229357,"77":0.023580415695495464,"78":0.013435050134369752,"79":-0.16064852431791843,"80":0.03238724322938379,"81":-0.1491009610942035,"82":-0.04358869354752422,"83":-0.060976828697917124,"84":0.016721282524457075,"85":0.03447035363765777,"86":0.1290450572959488,"87":-0.02598028824763872,"88":-0.15837450641160214,"89":-0.19544232111936813,"90":-0.03581180622391144,"91":0.08967331934717333,"92":-0.03348530799114369,"93":-0.0039157510482804875,"94":-0.027821548049013975,"95":-0.028379027601523756,"96":-0.03550244091053009,"97":-0.001951448506007818,"98":-0.03205667987112597,"99":0.10572041917081043,"100":0.1243896236484418,"101":0.13142150621409118,"102":-0.1915383350187642,"103":-0.09861228948420966,"104":-0.0859903420862167,"105":-0.13112052325939857,"106":-0.06887380828244395,"107":-0.05810237495588011,"108":0.05153975810744599,"109":0.07060171833172968}},{"sx":1,"sy":1,"depth":110,"w":{"0":0.012196786029901704,"1":-0.04773831934998491,"2":0.2257706775947911,"3":0.0017223981040466138,"4":0.018805336421302995,"5":-0.12925494964585363,"6":0.01249928550044284,"7":-0.08801226396772457,"8":0.09992920426860487,"9":0.18420805754816685,"10":0.05221482263389492,"11":0.16613548133522324,"12":0.14507698201317673,"13":0.050083939849882506,"14":0.17763320732165652,"15":0.03178932694196333,"16":-0.08018360277674824,"17":-0.13462023609873416,"18":0.13057465399747326,"19":0.029963788981642453,"20":0.09937645883172432,"21":0.09717422928078065,"22":-0.0493778662703472,"23":-0.05523330650527186,"24":-0.003962692173168268,"25":-0.0693650653648175,"26":0.13246443734556698,"27":0.1584862386566069,"28":0.052744372283325895,"29":-0.15140804772156571,"30":-0.12828372316533793,"31":0.051179093734007995,"32":-0.08193248382863456,"33":0.1765943623348218,"34":0.010785221332820769,"35":0.05843484959666504,"36":-0.004868584349242997,"37":-0.0029431663025678684,"38":0.09388876181848359,"39":0.0224300148187315,"40":-0.16827973914664146,"41":-0.1943893998543251,"42":-0.030655342582729124,"43":-0.061381238564444406,"44":-0.0408228570817768,"45":0.0350885972418498,"46":-0.02031175879187363,"47":-0.17891049080412305,"48":-0.16729990589070534,"49":0.012410682987870552,"50":-0.09259274068006468,"51":0.008653209528725685,"52":0.06789928641297895,"53":0.18899009939396288,"54":-0.012227386995898247,"55":-0.026785816826017005,"56":0.004750560319490403,"57":-0.14034088659308483,"58":-0.01810711012013247,"59":-0.05461498500458054,"60":-0.12660619033183673,"61":-0.0693775372584569,"62":0.0019446652977642876,"63":-0.057009181010822495,"64":0.1809393547698838,"65":-0.021907407331395252,"66":-0.0720070327352642,"67":0.05942248496908874,"68":-0.20662253284396237,"69":0.23887649573020897,"70":-0.020352539942384593,"71":-0.025560441449945456,"72":-0.01599658379999808,"73":-0.08075023312115431,"74":-0.07901142152515314,"75":-0.12225892049950282,"76":-0.0403298880308293,"77":0.07121219083649927,"78":0.02325724525493411,"79":-0.03077417449065994,"80":-0.014993488295502344,"81":-0.017289036310071646,"82":-0.051669905674726666,"83":-0.11268406360279885,"84":0.17028951838261516,"85":-0.08576403453179172,"86":0.20276007939638613,"87":0.13122649197429717,"88":-0.06188331662247265,"89":-0.12160428582683373,"90":0.1477897298800688,"91":0.008977804719832817,"92":-0.09006245744877542,"93":-0.10129841465690546,"94":-0.12998826579484038,"95":0.07758543191448458,"96":0.15032322909541476,"97":-0.11831872235247677,"98":-0.05112462832874174,"99":0.1312143585821411,"100":-0.025006312114518956,"101":0.15311042900493185,"102":0.31390688597651106,"103":0.07090471396731624,"104":-0.07249996514500455,"105":-0.15102838628917548,"106":0.05356870540542891,"107":-0.04716026545100462,"108":0.20533306034943194,"109":0.0642284136935741}},{"sx":1,"sy":1,"depth":110,"w":{"0":0.02806655923004118,"1":0.05575114252915911,"2":-0.061706739622711136,"3":-0.04284010113290124,"4":0.09451136898892494,"5":0.00960574119585905,"6":0.01831916630460483,"7":0.08962910594221589,"8":0.05489962615003601,"9":-0.061443309573418564,"10":0.05990592642565239,"11":-0.08237681503261993,"12":0.18057375974107215,"13":-0.07534810869322041,"14":-0.017477629659432642,"15":-0.20799989581566197,"16":0.07916003481308437,"17":-0.08549198220462154,"18":0.05272281588603113,"19":-0.0751704361665599,"20":0.0007112315501520058,"21":0.01797547551241083,"22":-0.09825144000146226,"23":-0.0382097357361083,"24":-0.10480032011552459,"25":-0.010407923252053376,"26":-0.08931466056607082,"27":-0.09743380485997623,"28":0.04877458714448015,"29":-0.05021627413368714,"30":0.06660529534987988,"31":-0.11331107812999212,"32":-0.025401860270366925,"33":-0.033557549547212344,"34":-0.10767745877445105,"35":0.13217200718663127,"36":-0.0020740723591786384,"37":-0.0876075262275303,"38":0.025544535027803118,"39":-0.08603846230171715,"40":-0.058566154922431356,"41":0.02923581722946201,"42":0.00006222328554532042,"43":0.11210151613484845,"44":-0.023306227171416814,"45":0.036012603318999366,"46":0.0210949546432032,"47":0.045557363427055686,"48":0.023482089566708032,"49":0.01215234686103321,"50":-0.038549942254052984,"51":0.15514840136309993,"52":0.183200594766224,"53":0.291182402674609,"54":-0.0012149822151567508,"55":-0.028344864111697635,"56":0.016362389917717164,"57":0.07275583544928445,"58":0.013685411099114345,"59":-0.08513924924860593,"60":-0.13061309454967115,"61":0.06461214540553573,"62":0.11639904068687199,"63":-0.023169695567033837,"64":0.054698521944180234,"65":0.04550887953713426,"66":-0.10667987952920541,"67":0.06642988752569089,"68":0.002051325459281416,"69":0.06269530318972628,"70":0.08425687429028009,"71":0.05872782668545525,"72":-0.04247944150035976,"73":0.03379726656080813,"74":-0.06910142708330445,"75":0.07383881383782694,"76":-0.06016140613260979,"77":-0.023697197537211848,"78":-0.10017885277454859,"79":0.07387629635126627,"80":-0.1502997734941039,"81":0.1518357536205406,"82":0.03915111525343776,"83":-0.06087266198425896,"84":0.10776633658793583,"85":-0.011301905737473463,"86":0.039631159269138266,"87":-0.036137472717035345,"88":-0.0023022395065943175,"89":0.019361961644445234,"90":0.08025507399395239,"91":-0.14930030040822495,"92":0.0695235303837006,"93":-0.08007918927438326,"94":-0.05371409300089936,"95":-0.07305805603361616,"96":0.03778228768613736,"97":0.03789993613096295,"98":-0.15235311968731222,"99":-0.09599632128712544,"100":-0.14506809610943316,"101":-0.016098526019248244,"102":-0.1057940606630953,"103":0.015209104636635964,"104":0.022058080773444226,"105":0.12384326740572325,"106":0.17933312885800737,"107":0.029477840158617076,"108":0.09481030580488677,"109":-0.008722915416322842}},{"sx":1,"sy":1,"depth":110,"w":{"0":0.07104077193216532,"1":0.20767331596627206,"2":-0.07480310271147464,"3":-0.013562127124135626,"4":-0.13288421124305508,"5":0.041812214759622345,"6":0.16935164285255802,"7":-0.1653524736914671,"8":0.027370249216469602,"9":0.13222939672701584,"10":0.08429982067885702,"11":0.1067960212893396,"12":0.0819280499318004,"13":-0.06573254032470316,"14":0.014550901023881001,"15":0.11103603542907564,"16":0.14915635453854054,"17":0.015326753020923567,"18":-0.0008321869485809643,"19":-0.016127076039267302,"20":0.060150257350377864,"21":-0.05774932828849131,"22":0.017137960509591717,"23":0.15187979490386058,"24":-0.016806552808944438,"25":0.029092204205143087,"26":-0.03396619033223927,"27":0.0402728148462598,"28":-0.15978991021499456,"29":-0.028527064067201447,"30":-0.026811173700733527,"31":-0.06762491152651494,"32":0.028989528945624506,"33":-0.03331539209388624,"34":0.10987895088096682,"35":0.09645372357690062,"36":0.04265921745677945,"37":-0.018955929133897886,"38":0.032739568373978976,"39":0.1127536147376972,"40":0.13957921186061797,"41":0.019795733750718046,"42":0.06090970765245424,"43":-0.14657235332844232,"44":-0.08087686783485569,"45":-0.02835190634559663,"46":-0.012608562931234897,"47":-0.04793003817229056,"48":-0.009649956434496147,"49":-0.0008113928743635827,"50":-0.16627356985649358,"51":-0.12507384220355908,"52":0.12106320259158315,"53":-0.05314028675439609,"54":0.03383636710226657,"55":0.1427092380941948,"56":-0.02113585855080875,"57":0.03282655665543241,"58":-0.09674182567649275,"59":-0.06410311759280878,"60":0.04868531574255256,"61":0.07820152638015719,"62":-0.25742803131406583,"63":-0.08851665062633729,"64":-0.07565770807692807,"65":0.1862369710343802,"66":0.18793566248917862,"67":0.029988814091771884,"68":-0.007016890766955012,"69":-0.10529782757602765,"70":0.04528518246254362,"71":-0.06718551948724694,"72":-0.17540025169145698,"73":-0.0438733610831998,"74":0.042465030882055804,"75":0.0006865593334006192,"76":0.06325411209578029,"77":-0.02956167834548546,"78":-0.05200301911358489,"79":0.11316377664726888,"80":-0.1095958736090452,"81":0.06995866804701587,"82":-0.0682771964577086,"83":0.16548344263208553,"84":-0.13434873385643906,"85":-0.08835572378389334,"86":0.0023080458868098334,"87":-0.0005625956176210627,"88":0.14542988230393822,"89":-0.06942478967085004,"90":-0.00395162700792443,"91":-0.04052418089173231,"92":0.07377320048278589,"93":0.059746907408278704,"94":-0.14788998312952778,"95":0.014739411734350977,"96":0.07578975204343424,"97":0.11895771433375181,"98":0.09111394789622812,"99":-0.14675576130180926,"100":0.085494878682147,"101":0.053330307104539315,"102":0.15259420345377894,"103":0.06681253151781512,"104":0.0250128723626874,"105":0.2138006352335551,"106":-0.026876853192493923,"107":0.14634507191635673,"108":-0.013326241200899426,"109":0.011996591775335562}},{"sx":1,"sy":1,"depth":110,"w":{"0":0.06190990672395325,"1":0.19558653663056683,"2":-0.06292223527477475,"3":-0.023639844213354824,"4":0.049321326095414064,"5":-0.026861778255182225,"6":0.00013603266279861817,"7":-0.02995622576398343,"8":0.006816873220091616,"9":-0.04943410835500263,"10":0.10134759473140652,"11":0.007833480939123944,"12":-0.20391862525331714,"13":0.1111258357966107,"14":0.045691591669187716,"15":0.015431082702349866,"16":-0.05491960828576366,"17":0.09684741147417125,"18":0.04671281125912634,"19":-0.05632692064500754,"20":0.03711280356357919,"21":0.060018177240034346,"22":-0.08027917843826857,"23":0.2015718573177559,"24":-0.10191565704849576,"25":0.04487154555850252,"26":-0.12629442194733076,"27":-0.05297781085920947,"28":0.0346149693310153,"29":0.06179605010665639,"30":0.14960630362105826,"31":0.09040764260012239,"32":0.09912078211748124,"33":0.009202497511782592,"34":-0.02858092322020416,"35":-0.04166814122321799,"36":-0.017316573391548414,"37":0.08237613858491152,"38":-0.0772202736383719,"39":0.0037846080889125185,"40":-0.06761128920610864,"41":-0.04345419835185024,"42":-0.061582684567927745,"43":0.017536423255076938,"44":-0.013278581695654577,"45":-0.24012143335135055,"46":0.16536403502750868,"47":-0.1027821507560796,"48":0.044181937322835124,"49":-0.12207094105077154,"50":0.010436945248796898,"51":0.034978323150414506,"52":-0.10597886966543685,"53":-0.1865168007898834,"54":0.16561608020797786,"55":0.1759275623353766,"56":-0.14877688870942019,"57":0.09585394662029216,"58":0.055953197745598524,"59":-0.053237892301150364,"60":-0.006118449334548822,"61":0.022057504175165363,"62":0.049789610485046515,"63":0.13014766498374883,"64":0.01183958403661159,"65":-0.14719720812374446,"66":-0.03304094470635269,"67":-0.06439311566160527,"68":0.006181593834582564,"69":-0.10673245944754521,"70":-0.17946753755872993,"71":-0.03539997159539195,"72":0.022341114107853933,"73":-0.16619903884633244,"74":-0.15918249711999913,"75":0.1354744660710509,"76":0.010373032884156317,"77":-0.09944014639000943,"78":-0.24614272870681644,"79":-0.1744940306060625,"80":-0.002564472637935372,"81":0.0861125601361552,"82":-0.05981658699538988,"83":0.11409121188112903,"84":-0.2260309759104444,"85":-0.04087667250765077,"86":0.1300713001197934,"87":-0.02116183634129122,"88":0.05811692447631304,"89":0.054087593939930546,"90":0.03497042975406997,"91":-0.2274617215748004,"92":0.0023048373747896703,"93":-0.135247405085016,"94":0.07509490985978069,"95":0.037903693075072506,"96":-0.02675328432643405,"97":0.06541213776445443,"98":0.039947175623481164,"99":-0.040569067001678075,"100":0.01059651433085569,"101":0.011661409221982473,"102":-0.00916232025196765,"103":0.13570970015611955,"104":0.033117561947958334,"105":0.1227003841967418,"106":0.047331428291390934,"107":0.182856403150594,"108":0.07167693770122321,"109":0.13888766299590188}},{"sx":1,"sy":1,"depth":110,"w":{"0":0.09138451341082468,"1":0.20862067052441965,"2":-0.09028156089577011,"3":-0.04282948613501864,"4":-0.002833860782106719,"5":0.2155753574977411,"6":0.07345608578964413,"7":-0.05402044269229267,"8":-0.10708120699047449,"9":0.009009851233004343,"10":0.055139514130832123,"11":-0.14332158077113774,"12":-0.0489940092833133,"13":0.17827534447772128,"14":0.05256834007591932,"15":-0.12255003592344109,"16":0.0021130553586064652,"17":-0.04325503068270779,"18":0.026628861889864654,"19":-0.12745173742608729,"20":-0.08897025833731004,"21":0.07217802905388503,"22":-0.10936442931011704,"23":0.044312134473562484,"24":0.011114288912293355,"25":0.02476697286380815,"26":-0.0771422242440401,"27":0.1350512273067336,"28":-0.11220052737918236,"29":-0.041812757407131605,"30":0.0820006576707163,"31":0.007524461290458386,"32":-0.020224385527685414,"33":0.15858948137686488,"34":0.14914759445094003,"35":0.1904819349949402,"36":-0.015562192052523955,"37":0.11547453182960572,"38":0.0712727743658223,"39":-0.008486321741421821,"40":0.056095581980008406,"41":0.09292100318100198,"42":0.0546573941556435,"43":0.013814065231151066,"44":0.0926292233575493,"45":0.12169939057315748,"46":0.04543561541345877,"47":0.08464233131311119,"48":-0.030908680877950626,"49":-0.04818537210851946,"50":-0.040457779439570546,"51":0.03230008947025667,"52":0.00028137189772756426,"53":0.14460262365527268,"54":-0.05293198690687683,"55":0.040449255072872496,"56":0.06770443189795375,"57":0.09131709692993945,"58":-0.10659244116064,"59":0.09719420165838118,"60":-0.10572668737501247,"61":-0.10038379149270785,"62":-0.06475786961667972,"63":-0.11035361709543998,"64":-0.07547921110887977,"65":0.012045811971834805,"66":-0.030439444099195547,"67":-0.10986657025683637,"68":-0.015395628529733842,"69":0.08408137232300401,"70":0.08098960111152229,"71":-0.17022578929058638,"72":-0.054848781046204796,"73":0.17488189942622204,"74":0.14576569916809762,"75":-0.11990338907466098,"76":0.19656598660924404,"77":-0.13288530817614808,"78":-0.225749709153806,"79":-0.195406924780166,"80":-0.0373223239375376,"81":0.1351129391169086,"82":0.010331848047080712,"83":-0.07958743133810678,"84":-0.19764853140939614,"85":-0.1915126572136851,"86":0.035549102886848365,"87":-0.018652071672545047,"88":0.2498394875872364,"89":0.08115993929507927,"90":0.07992977428794988,"91":-0.04246446050210532,"92":0.055185662810412206,"93":0.01849992634245441,"94":0.06215151329845135,"95":-0.05835012371645345,"96":0.00527271996199981,"97":0.09933726804805816,"98":0.041359893968897755,"99":0.0826409270457879,"100":-0.03764235828170623,"101":0.0068429532415170006,"102":0.14050853817818298,"103":-0.009816149737997118,"104":0.19990829310426106,"105":0.07863562762767554,"106":0.06904471517601038,"107":0.13913893256227067,"108":0.027596739817729442,"109":0.09177473353328774}},{"sx":1,"sy":1,"depth":110,"w":{"0":0.1028349415197005,"1":-0.07982917134503661,"2":-0.026264362739563785,"3":-0.02021987135282725,"4":0.1445473850855418,"5":-0.03183963796491776,"6":0.05844491245012384,"7":0.09602002561977546,"8":-0.027769166552247874,"9":0.007500353822119336,"10":0.06636030404994633,"11":-0.11322859484091456,"12":0.0807431655549568,"13":0.000015065183731778514,"14":0.05067981674489238,"15":0.0031324014813767444,"16":0.03173832989953799,"17":-0.09195931729352227,"18":-0.13215636669408304,"19":-0.09937301581138598,"20":0.011572549571959537,"21":-0.16248141080665232,"22":0.09432398643862817,"23":0.02648318234738832,"24":0.007753629912189637,"25":-0.04499574448574499,"26":0.024392425590613446,"27":-0.036459062525458955,"28":-0.09732714363919434,"29":0.07678213175801753,"30":-0.02206814946209812,"31":0.03678954104638058,"32":0.039099742491144514,"33":0.08103394441336206,"34":-0.04237954060675467,"35":-0.16366492526667958,"36":0.14210754772844608,"37":-0.09304882094651915,"38":-0.10637260469648915,"39":0.003526369503305169,"40":0.0661282535235833,"41":-0.059124354386819504,"42":0.019823227203287653,"43":0.24939508987498776,"44":0.1229134789067836,"45":0.0829377677200373,"46":-0.050664585178519614,"47":-0.032144250198743486,"48":0.1704048504367471,"49":0.10631388853754695,"50":-0.04910804717515548,"51":0.08655226619027165,"52":0.025211362484936013,"53":0.11232665478019027,"54":0.08949042022737642,"55":0.09767823621760048,"56":-0.00972904514944739,"57":0.10868409698587828,"58":-0.059614536114740935,"59":-0.10822671029522674,"60":0.14359240768384796,"61":-0.06113928921552455,"62":-0.029506335024106902,"63":0.006040913645956086,"64":-0.1010024794812854,"65":0.11207020020042543,"66":-0.14838447587393394,"67":0.07671990918414318,"68":0.031999981577525725,"69":0.1685091724599188,"70":0.06680614765429,"71":0.047315787117496524,"72":-0.10025601806956616,"73":0.059062199113932554,"74":0.08432296779985639,"75":0.11655483479419329,"76":0.06224348648952023,"77":0.015012229983711507,"78":-0.04261693084598517,"79":0.1695464672481706,"80":-0.07913232998684847,"81":0.041307197441034366,"82":-0.10036963068719354,"83":-0.020527950221132334,"84":0.021409187170632466,"85":0.10434505707972942,"86":0.12053537108982129,"87":0.12588999579765034,"88":-0.097925575132694,"89":-0.05042575109502403,"90":-0.09772338224956272,"91":-0.033000357707128385,"92":0.05192699108486672,"93":0.037766985121632124,"94":-0.07642138316001651,"95":0.1209613128691077,"96":-0.003592773971083046,"97":0.13970803277831512,"98":-0.16224290299853136,"99":-0.0053679900551596325,"100":0.10168542508834007,"101":0.2448089799376561,"102":0.1343392729800401,"103":-0.11227997888361237,"104":-0.01281626604887872,"105":0.10451465988985333,"106":-0.11572366931659046,"107":0.07624374055453689,"108":-0.08043424240686456,"109":0.08390316459316295}},{"sx":1,"sy":1,"depth":110,"w":{"0":-0.09567423991642142,"1":-0.16545210544219113,"2":0.11102485253625889,"3":0.13381505369581867,"4":0.05769716719904833,"5":-0.006149638104706043,"6":0.17216229794084723,"7":-0.0589436136008768,"8":-0.0901968942182061,"9":-0.22171050034740697,"10":-0.041300602747559846,"11":-0.10512496485791696,"12":0.054602475271877664,"13":-0.0810041146329041,"14":-0.1348900046453569,"15":-0.049620605660488815,"16":0.10023773909949005,"17":0.09850131428555697,"18":0.04186887782939428,"19":-0.2495458272231185,"20":-0.029299604130612698,"21":0.13545862869980949,"22":0.044536605798047885,"23":-0.07102717759939967,"24":-0.03279119301665978,"25":-0.13956484765450353,"26":0.10300034333233214,"27":-0.03099558738639749,"28":0.093568016351864,"29":-0.05619375401866025,"30":-0.0022302826136345873,"31":0.17725825920152274,"32":-0.02847601865785749,"33":0.024396726403415524,"34":-0.18541815340473547,"35":-0.09385152562114582,"36":0.04116746170116241,"37":-0.05898949491802851,"38":0.04829793431405523,"39":-0.18051951656452542,"40":0.15144886247953,"41":-0.13897674940856236,"42":0.07815917264897941,"43":-0.05676630872903867,"44":0.02156068127872377,"45":0.15784182555131213,"46":0.007354741254544388,"47":-0.0435791793071065,"48":-0.0036841523875380524,"49":0.07375121374900581,"50":-0.027539120508648048,"51":-0.05627412412238212,"52":-0.04201242770371347,"53":0.03471825997742942,"54":-0.04676836102946524,"55":0.08203404774153487,"56":-0.09819035475974931,"57":-0.03608279275628101,"58":0.038024118104335564,"59":0.01405817910032379,"60":0.11726136336983913,"61":-0.09017787905560165,"62":-0.09726545607060949,"63":-0.03600286453338084,"64":-0.17790863067214255,"65":-0.06161872596262261,"66":0.1559711692765071,"67":-0.10815585930476482,"68":0.033734335895191675,"69":0.18728267697704137,"70":-0.028862403250197347,"71":-0.11829259718344722,"72":0.04390278094011891,"73":0.025685997247420052,"74":-0.006217572865504981,"75":-0.0646807327525009,"76":-0.0037445721141482783,"77":-0.10082803237872381,"78":-0.0225194931523067,"79":0.05659015960826917,"80":-0.07854585475161706,"81":-0.050322697276635533,"82":0.037644469261126676,"83":0.008767588389782957,"84":0.07153064590091214,"85":-0.0051951282327075896,"86":0.13086059786557305,"87":0.02599011498360995,"88":-0.16465437418067605,"89":-0.07975866332021683,"90":0.11840469371866964,"91":-0.035127855712916004,"92":0.03481501852789089,"93":-0.013331231750987885,"94":0.0799610083457729,"95":0.00063980478953683,"96":0.013194721537248403,"97":0.10189765646481462,"98":-0.11089105028457574,"99":0.036324436551394425,"100":0.0239683977053091,"101":0.1301414218099821,"102":0.028788680990244578,"103":-0.07384545430397818,"104":0.10315589890129168,"105":0.03795713167463752,"106":-0.17337346036029794,"107":0.06405192655801738,"108":-0.013058400251959753,"109":0.012472589773120529}},{"sx":1,"sy":1,"depth":110,"w":{"0":0.019434065357987976,"1":-0.04179497305023284,"2":-0.0283654742747213,"3":-0.005117861606270741,"4":0.20297178376459543,"5":0.126924720046875,"6":0.06891955698419552,"7":0.07178865756261549,"8":0.11683771666886067,"9":0.04347887801587754,"10":-0.003885402978031206,"11":-0.0565698523088019,"12":-0.08632090196368608,"13":0.008132876837167903,"14":-0.002969472517792073,"15":0.1067568832635616,"16":0.08426280460754398,"17":0.0318559539178028,"18":-0.07576616663150995,"19":-0.19328537081181757,"20":-0.012770470078675567,"21":0.03364299665554101,"22":0.2115853112067345,"23":-0.09093588291286427,"24":-0.30471038163661274,"25":0.12792240730458596,"26":-0.23201129125844222,"27":-0.019460290404416127,"28":0.04723553136195003,"29":-0.029069802415133055,"30":-0.09291364073760684,"31":0.10377038604757609,"32":0.007917234191133493,"33":0.01760805685935402,"34":0.015766563522367983,"35":-0.04697396489514427,"36":0.024847069565773636,"37":0.27821584566484464,"38":0.09417991628092957,"39":-0.08465408511812561,"40":-0.02676013808952902,"41":-0.027872332535654583,"42":0.03851657230551685,"43":-0.0386528122163151,"44":0.134922258198256,"45":0.06983529524522339,"46":-0.07440071150781098,"47":0.13966694426501103,"48":-0.029776543944496955,"49":0.04398463873042959,"50":0.14067787076410723,"51":-0.07290832071300735,"52":0.0954514030005664,"53":-0.0067805240308094795,"54":0.09714088030874463,"55":0.03382727982943214,"56":-0.051375403791139945,"57":0.10320711763855049,"58":-0.03481560994100557,"59":0.03091201233941684,"60":0.18070438655013457,"61":-0.05012812063407604,"62":-0.054062466174400636,"63":-0.0541259052463686,"64":-0.057401017454436584,"65":0.04480863334916385,"66":-0.13326024679841253,"67":0.1689100554064719,"68":0.07503974148646245,"69":0.13842746105489145,"70":-0.07767011706422187,"71":-0.14775353664618707,"72":-0.0029742880298822046,"73":0.07196940795856312,"74":-0.04995708535058262,"75":0.05562312749332287,"76":0.08707291959683136,"77":-0.08017214416253467,"78":0.013872773624406878,"79":0.07499205634969967,"80":0.0851976657577632,"81":0.08350766003656222,"82":-0.0979041240262072,"83":0.011628853947596537,"84":0.057928464809455765,"85":0.04258466390619235,"86":0.12442006928404352,"87":-0.0030122989769852215,"88":0.033633132603852506,"89":0.055826835350936826,"90":0.08159981943664164,"91":0.05359254736026169,"92":-0.03615502867211479,"93":-0.10827875994346074,"94":-0.0825346046461882,"95":-0.04579396990822153,"96":0.1580529394784524,"97":0.03770993009834271,"98":0.02417800939600392,"99":0.08451629349940065,"100":-0.15296110014340056,"101":0.1830906440292287,"102":-0.12703673480193062,"103":-0.10083153021959794,"104":0.1134690464959955,"105":0.06024078873353453,"106":-0.08730531310013444,"107":-0.11632397365376558,"108":0.05887239270367777,"109":0.01786435185683476}},{"sx":1,"sy":1,"depth":110,"w":{"0":-0.05231189705009222,"1":0.03626588633418159,"2":-0.023825764224612002,"3":-0.1435779996773955,"4":0.18404179111904218,"5":-0.022060213310291118,"6":0.05458647859383735,"7":-0.17671658147810537,"8":0.03940384669206154,"9":0.04628970713401174,"10":-0.018447479730820025,"11":-0.005216734152415544,"12":0.0775174879787786,"13":0.11451323353812926,"14":0.051318327871165345,"15":-0.007874356127239664,"16":0.11969976931346171,"17":0.1200607202113356,"18":0.07154904067111889,"19":0.05741016376952872,"20":0.054899892412614726,"21":-0.05940387290071084,"22":-0.01767168244428574,"23":0.10187788396948379,"24":-0.09542778737497158,"25":-0.07677497402841875,"26":0.007945473856784867,"27":0.027867452671861984,"28":-0.02910526593239487,"29":0.13912685380810635,"30":0.07528020818347818,"31":-0.04785683805536867,"32":0.09205592549940149,"33":-0.041277332619091965,"34":-0.09709653666502817,"35":0.15995871696014488,"36":-0.012330770994253247,"37":0.13000547840219087,"38":0.004844461001828847,"39":-0.03889683505963373,"40":0.14690815266111681,"41":-0.02675610800258035,"42":-0.0016556159614325757,"43":0.044624720814323726,"44":0.15116109447247983,"45":0.03663902539600408,"46":0.00541995725562734,"47":0.026116345638869703,"48":-0.1170337109383485,"49":0.1305469659787834,"50":-0.07803551548595761,"51":0.003161439223014613,"52":-0.05167942253942082,"53":0.10782475840371417,"54":0.11387225242870916,"55":0.0915978222364707,"56":-0.006759944047453344,"57":0.19764285419367456,"58":0.12048306338153568,"59":0.07598567467009044,"60":-0.09153147404499018,"61":-0.12832186053401268,"62":0.03294062315389778,"63":-0.05136097416444009,"64":-0.042083325983066,"65":0.06702657108752123,"66":0.05546008223821452,"67":0.017818358615383674,"68":-0.11502206579244638,"69":-0.024387763966515784,"70":0.22512400883169073,"71":0.03755510928853735,"72":0.09802130501771163,"73":-0.04064768485362803,"74":0.08612174970316547,"75":-0.017580122975660546,"76":0.08887789024658185,"77":0.04603287577560144,"78":-0.10935433848594595,"79":0.0382418973202531,"80":0.07975008835487979,"81":0.00832069177713662,"82":-0.006060690514045147,"83":0.05828072054795073,"84":0.04225666008616812,"85":0.005657705105061986,"86":-0.2229007905062591,"87":0.03753473061781577,"88":0.24060895177132344,"89":-0.08041608311748871,"90":-0.06295079689028084,"91":0.04051535748673354,"92":0.10257045715549093,"93":-0.06691998759727279,"94":-0.08252848026506403,"95":0.03211153651183765,"96":0.03344112328037672,"97":0.17900301290609966,"98":-0.07576761088638512,"99":-0.005402130544840263,"100":-0.06760851418042343,"101":0.001194749952852881,"102":-0.11229606835775399,"103":-0.18566130348758123,"104":0.031196431435060328,"105":-0.11765500146666229,"106":-0.08050525895591361,"107":-0.10839750706719845,"108":-0.16054465022572667,"109":-0.029605616685300533}},{"sx":1,"sy":1,"depth":110,"w":{"0":0.03299887426668079,"1":0.00503139328516858,"2":-0.1004660185065607,"3":0.1171399154080064,"4":-0.21012202328450957,"5":-0.022649837963638637,"6":-0.059309168293662104,"7":-0.08711580430708811,"8":0.04095305319918829,"9":-0.09224727342670555,"10":0.01589484455803718,"11":0.07941501752801539,"12":-0.08091107395632066,"13":0.0785910795760552,"14":0.0332373816170888,"15":-0.016695704202210292,"16":0.11181266161002988,"17":-0.05232964421535874,"18":0.16407073325518237,"19":-0.004690617821403916,"20":-0.003988405507406316,"21":-0.030903530741462133,"22":0.1505237179023701,"23":0.05185324507415792,"24":0.03869009834878285,"25":0.00695492404913014,"26":0.015119334729266569,"27":-0.05703696102515084,"28":-0.061518766444113096,"29":0.05328965208836205,"30":-0.08885019269513107,"31":0.05306107269208954,"32":0.07860005502919715,"33":-0.034976054317825626,"34":0.23989645690207492,"35":0.12423359210961761,"36":-0.007055603899329066,"37":-0.028006898924256625,"38":0.06750669922429293,"39":-0.017985835157059437,"40":0.03982054292999455,"41":0.13254776372699587,"42":0.03378184189406077,"43":-0.03386179970647909,"44":-0.1882263823157802,"45":0.08438097578415704,"46":-0.036195579365421254,"47":0.06841460921795153,"48":0.1109793792819536,"49":0.027987045298694835,"50":0.0741886348312891,"51":0.004473456812951273,"52":-0.11096326382170839,"53":0.05724561610328052,"54":0.06485818454665683,"55":-0.023872987909654603,"56":0.033471414839542586,"57":-0.031248419791257597,"58":-0.014575052826992776,"59":0.005858100854398733,"60":-0.05044745182091174,"61":-0.003652750825812594,"62":0.06524158069817775,"63":-0.07922089471406592,"64":0.013622965924846063,"65":-0.08038657692115166,"66":-0.05448778544522437,"67":-0.027045102485466342,"68":0.03960370279079484,"69":-0.09522289342161516,"70":0.022381181440362496,"71":0.06381331295460152,"72":-0.08646749222983922,"73":-0.013561391505923158,"74":-0.07285379443420312,"75":0.11076792305376673,"76":-0.1280664388039941,"77":-0.005726397916829721,"78":0.055917847230256154,"79":0.059013216668165405,"80":-0.04332606712869906,"81":0.05086365705123064,"82":0.0036321208056937825,"83":-0.09861014465916974,"84":-0.08729139902381344,"85":0.0006928867986897552,"86":-0.12868382966500508,"87":-0.006314586438272591,"88":-0.015378584740970055,"89":-0.04743541275562948,"90":-0.11281405131477183,"91":-0.08116061597383381,"92":-0.16311771749533882,"93":0.14527875449062141,"94":-0.1580725248096619,"95":-0.1631263965763973,"96":-0.06749514637960993,"97":0.1097962353903402,"98":-0.17369142939744503,"99":0.27450469658210636,"100":0.14499634409924908,"101":-0.041993461030809615,"102":-0.039078649891474,"103":0.06311269723133711,"104":-0.009283696418311081,"105":0.08390289518911394,"106":-0.043739559289534935,"107":0.015375291097696378,"108":0.09116945473610051,"109":-0.15125756126406767}},{"sx":1,"sy":1,"depth":110,"w":{"0":-0.09008530932788504,"1":-0.10981898750565354,"2":0.1300844231811576,"3":-0.021906792363653445,"4":-0.0009649659753442632,"5":0.16785727947223408,"6":0.054522517695525324,"7":-0.060874442391439715,"8":-0.10971208986299517,"9":0.04071653192089522,"10":-0.0026640173140414637,"11":-0.0769698496382466,"12":-0.12047871468379977,"13":-0.16776327243402925,"14":-0.10551860842646635,"15":-0.022019303025888563,"16":-0.05505079557303638,"17":0.025669880158274337,"18":-0.03395005787051579,"19":-0.09720415960505098,"20":0.06435602871815228,"21":0.07577818416480427,"22":-0.0084202654474184,"23":0.1328749719840673,"24":0.1531327547921857,"25":-0.20158402229944375,"26":-0.1549986644522243,"27":-0.06993244974367328,"28":0.19157672317151703,"29":-0.1925957108993977,"30":0.24784535745062888,"31":0.07580685652398744,"32":-0.036164523616212106,"33":-0.0586575737306369,"34":-0.01384058620473974,"35":0.0180228643464186,"36":-0.061269244391780935,"37":0.001569298624696706,"38":-0.020735402658635674,"39":0.04520516304634665,"40":0.001425674382272224,"41":0.14455013627244004,"42":-0.03153076937793708,"43":-0.05228963114726716,"44":-0.15059033242665748,"45":0.055713853777211275,"46":-0.07012410930548688,"47":0.057962302415595426,"48":0.14275826537976644,"49":0.02367565204188988,"50":-0.13865804973344892,"51":-0.01849003127369366,"52":0.19498225577235492,"53":-0.026255106094310705,"54":0.13436374226437373,"55":0.09914164147455795,"56":0.11733626060900731,"57":0.23756399075306042,"58":0.08235927064125392,"59":0.11325045833778308,"60":0.1093703618756427,"61":-0.046226069837514934,"62":0.1690206699340743,"63":-0.05495492604176804,"64":0.0013426626103436663,"65":-0.07551953682279755,"66":0.13129127536248406,"67":-0.18285724957819485,"68":0.1612794803566666,"69":0.06673179702864183,"70":-0.03520563242871051,"71":-0.015632316596651163,"72":0.1439416136734697,"73":-0.046364450677011476,"74":-0.05947226070507681,"75":0.020952053961308423,"76":-0.1001924440654331,"77":-0.01701855843925183,"78":-0.12026472549096377,"79":0.111155800013111,"80":0.029754935347394307,"81":0.06059582380226164,"82":-0.047856637809448356,"83":-0.048165054692330726,"84":-0.12237902536575876,"85":-0.04217837114603997,"86":0.014900583660902095,"87":-0.10546091667752473,"88":0.01357000921197472,"89":-0.19135014550605656,"90":0.06540028640563922,"91":0.010480901423255563,"92":0.08614835656292227,"93":0.10831537304700109,"94":-0.007794110087329793,"95":-0.11998303168584398,"96":-0.23059120707174038,"97":0.14728830144687063,"98":-0.021052613654264425,"99":-0.010900141547464767,"100":0.05642863274483627,"101":-0.1456093783424886,"102":0.09864160316441237,"103":-0.020762585441322774,"104":-0.1634134937251154,"105":0.028726111540980287,"106":-0.06231609155588239,"107":0.08964037939303007,"108":0.06334343995692028,"109":-0.04731265930861875}},{"sx":1,"sy":1,"depth":110,"w":{"0":0.016420477865745974,"1":-0.13316490626917118,"2":-0.3371451539566287,"3":0.05465908369186667,"4":0.08160569677215859,"5":-0.012327295643660146,"6":-0.038469656058802766,"7":0.05237008866571745,"8":0.0642506964917332,"9":-0.15196356576232162,"10":-0.11338844402753213,"11":0.16171608515736796,"12":0.198474467041054,"13":0.051113885089229115,"14":0.13327133823024467,"15":0.03322262624440233,"16":-0.029783974350030964,"17":0.02267046498340668,"18":-0.10088629125140418,"19":-0.2297213282137034,"20":-0.11067411654406338,"21":0.032993895417876194,"22":0.10464076615440547,"23":0.0450413911260799,"24":-0.12089264239627899,"25":-0.10387306152193537,"26":0.06659452681591835,"27":-0.11018111046189184,"28":0.025082792445195075,"29":-0.06224811927092489,"30":-0.0019369044396151355,"31":-0.05465066216195487,"32":-0.10516597994338905,"33":-0.03872287215420377,"34":0.12446014006451794,"35":-0.09418195399008109,"36":-0.01510180787652732,"37":-0.04527028205712925,"38":-0.20294885658366882,"39":-0.23826139420911077,"40":-0.08035175685920645,"41":-0.0023543462505484516,"42":-0.007668073339944246,"43":-0.04436189553102673,"44":-0.008119455072975557,"45":0.2782739692710966,"46":0.17184084335452232,"47":0.09394718777824888,"48":0.016793574775141457,"49":0.14996480586387778,"50":0.1006703238149847,"51":0.09241296007525406,"52":-0.03714120630911375,"53":-0.11163865444637089,"54":0.1280551693646058,"55":0.036182302925611164,"56":0.0035498689476243096,"57":-0.2879597131835706,"58":-0.03744319149906581,"59":-0.06382249324035755,"60":-0.04669876588889959,"61":-0.046621164210730884,"62":0.04061397074203173,"63":0.09676538735663608,"64":-0.007027309600678384,"65":0.010679779342575127,"66":-0.007566961311192996,"67":-0.09249994963906204,"68":-0.04771595898003631,"69":-0.12686220856070235,"70":0.029962502738996966,"71":-0.1233329637055246,"72":-0.02403181513225473,"73":-0.030227728327447557,"74":0.03149122757211795,"75":-0.11033642144406264,"76":-0.10132351793292765,"77":-0.01017425630198907,"78":-0.0011655925030306644,"79":0.01431895107179332,"80":-0.16679485242513303,"81":-0.06814159043882732,"82":0.026377352953974684,"83":0.042361953686925656,"84":-0.14609761800080107,"85":-0.03263183342562032,"86":0.07166602437534353,"87":-0.019139634424808614,"88":0.0476249493666372,"89":-0.05635793595351201,"90":-0.03547346392331928,"91":0.08870147996517233,"92":-0.0818793870802489,"93":0.027834652915889452,"94":0.07295282321968921,"95":-0.05590564245539498,"96":0.02053467681143664,"97":0.10818340429588154,"98":0.040567285274984446,"99":0.0577558786652573,"100":0.055660461666308746,"101":0.12670807229292888,"102":-0.054562858515477666,"103":0.04057539014841133,"104":-0.06974113381981363,"105":0.08515866045262098,"106":0.1119845978966576,"107":-0.08529725892552967,"108":0.16737599356728447,"109":0.07883066076143252}},{"sx":1,"sy":1,"depth":110,"w":{"0":-0.005991933490727337,"1":-0.018547193923797365,"2":0.004983217964531068,"3":-0.25965292121132205,"4":0.08063444930346379,"5":0.051681490781574274,"6":0.04090154943649565,"7":-0.027442976590083233,"8":-0.08727136352456946,"9":-0.00952527755459898,"10":0.030027820740821238,"11":-0.029578877347452362,"12":0.08066663334774951,"13":-0.21154422068926512,"14":0.00687434464038257,"15":0.027787057539890265,"16":0.19863785807021692,"17":0.05594868536587899,"18":-0.15064306068411995,"19":-0.006748428862697733,"20":-0.12841656674540278,"21":0.12257476311524415,"22":-0.05078931994284775,"23":0.006913143673532357,"24":0.041105694860304104,"25":-0.10624808040582075,"26":0.047292703680127585,"27":-0.08669808718714556,"28":0.033761700112506045,"29":-0.0672420852611195,"30":0.02339354749003326,"31":-0.06056899114530327,"32":0.08394112197923706,"33":-0.11805363503963621,"34":-0.007382935769734881,"35":-0.0970225214942875,"36":-0.05065080851837373,"37":0.0039051652646045903,"38":-0.023239581313747162,"39":-0.09512761679232895,"40":0.08964266663007373,"41":0.07860439651353944,"42":0.025235974305025843,"43":-0.05556975479637814,"44":0.3071806050984757,"45":-0.013486293501318984,"46":0.010221285800106922,"47":-0.12057139679562609,"48":-0.04961156258861134,"49":-0.06954235396631446,"50":0.1040995563602687,"51":-0.21574053117491968,